digraph Tree {
node [shape=box, style="filled, rounded", color="black", fontname="helvetica"] ;
edge [fontname="helvetica"] ;
0 [label="total_bill <= 20.47\nsquared_error = 2.032\nsamples = 195\nvalue = 3.088", fillcolor="#f9e2d1"] ;
1 [label="total_bill <= 16.28\nsquared_error = 0.68\nsamples = 119\nvalue = 2.456", fillcolor="#fbebdf"] ;
0 -> 1 [labeldistance=2.5, labelangle=45, headlabel="True"] ;
2 [label="total_bill <= 13.2\nsquared_error = 0.481\nsamples = 76\nvalue = 2.135", fillcolor="#fcefe6"] ;
1 -> 2 ;
3 [label="total_bill <= 6.5\nsquared_error = 0.593\nsamples = 41\nvalue = 1.963", fillcolor="#fcf2ea"] ;
2 -> 3 ;
4 [label="squared_error = 0.0\nsamples = 1\nvalue = 1.0", fillcolor="#ffffff"] ;
3 -> 4 ;
5 [label="total_bill <= 7.38\nsquared_error = 0.584\nsamples = 40\nvalue = 1.987", fillcolor="#fcf1e9"] ;
3 -> 5 ;
6 [label="smoker <= 0.5\nsquared_error = 4.306\nsamples = 2\nvalue = 3.075", fillcolor="#f9e2d1"] ;
5 -> 6 ;
7 [label="squared_error = 0.0\nsamples = 1\nvalue = 1.0", fillcolor="#ffffff"] ;
6 -> 7 ;
8 [label="squared_error = 0.0\nsamples = 1\nvalue = 5.15", fillcolor="#f3c5a4"] ;
6 -> 8 ;
9 [label="total_bill <= 8.55\nsquared_error = 0.322\nsamples = 38\nvalue = 1.93", fillcolor="#fcf2eb"] ;
5 -> 9 ;
10 [label="total_bill <= 7.93\nsquared_error = 0.075\nsamples = 4\nvalue = 1.558", fillcolor="#fdf7f3"] ;
9 -> 10 ;
11 [label="squared_error = 0.0\nsamples = 1\nvalue = 2.0", fillcolor="#fcf1e9"] ;
10 -> 11 ;
12 [label="total_bill <= 8.43\nsquared_error = 0.013\nsamples = 3\nvalue = 1.41", fillcolor="#fef9f6"] ;
10 -> 12 ;
13 [label="squared_error = 0.0\nsamples = 1\nvalue = 1.5", fillcolor="#fef8f4"] ;
12 -> 13 ;
14 [label="sex <= 0.5\nsquared_error = 0.013\nsamples = 2\nvalue = 1.365", fillcolor="#fefaf7"] ;
12 -> 14 ;
15 [label="squared_error = 0.0\nsamples = 1\nvalue = 1.25", fillcolor="#fefcfa"] ;
14 -> 15 ;
16 [label="squared_error = 0.0\nsamples = 1\nvalue = 1.48", fillcolor="#fef8f4"] ;
14 -> 16 ;
17 [label="total_bill <= 9.64\nsquared_error = 0.333\nsamples = 34\nvalue = 1.974", fillcolor="#fcf1ea"] ;
9 -> 17 ;
18 [label="sex <= 0.5\nsquared_error = 1.082\nsamples = 2\nvalue = 2.96", fillcolor="#f9e4d4"] ;
17 -> 18 ;
19 [label="squared_error = 0.0\nsamples = 1\nvalue = 4.0", fillcolor="#f6d5bd"] ;
18 -> 19 ;
20 [label="squared_error = -0.0\nsamples = 1\nvalue = 1.92", fillcolor="#fcf2eb"] ;
18 -> 20 ;
21 [label="total_bill <= 10.08\nsquared_error = 0.222\nsamples = 32\nvalue = 1.912", fillcolor="#fcf2eb"] ;
17 -> 21 ;
22 [label="day <= 2.5\nsquared_error = 0.037\nsamples = 4\nvalue = 1.465", fillcolor="#fef8f5"] ;
21 -> 22 ;
23 [label="day <= 1.5\nsquared_error = 0.018\nsamples = 3\nvalue = 1.377", fillcolor="#fefaf7"] ;
22 -> 23 ;
24 [label="squared_error = 0.0\nsamples = 1\nvalue = 1.25", fillcolor="#fefcfa"] ;
23 -> 24 ;
25 [label="total_bill <= 9.81\nsquared_error = 0.014\nsamples = 2\nvalue = 1.44", fillcolor="#fef9f5"] ;
23 -> 25 ;
26 [label="squared_error = 0.0\nsamples = 1\nvalue = 1.32", fillcolor="#fefbf8"] ;
25 -> 26 ;
27 [label="squared_error = 0.0\nsamples = 1\nvalue = 1.56", fillcolor="#fdf7f3"] ;
25 -> 27 ;
28 [label="squared_error = -0.0\nsamples = 1\nvalue = 1.73", fillcolor="#fdf5ef"] ;
22 -> 28 ;
29 [label="smoker <= 0.5\nsquared_error = 0.215\nsamples = 28\nvalue = 1.976", fillcolor="#fcf1ea"] ;
21 -> 29 ;
30 [label="day <= 2.5\nsquared_error = 0.22\nsamples = 16\nvalue = 2.066", fillcolor="#fcf0e8"] ;
29 -> 30 ;
31 [label="day <= 0.5\nsquared_error = 0.295\nsamples = 9\nvalue = 2.236", fillcolor="#fbeee4"] ;
30 -> 31 ;
32 [label="squared_error = 0.0\nsamples = 1\nvalue = 1.5", fillcolor="#fef8f4"] ;
31 -> 32 ;
33 [label="total_bill <= 12.675\nsquared_error = 0.256\nsamples = 8\nvalue = 2.327", fillcolor="#fbece2"] ;
31 -> 33 ;
34 [label="total_bill <= 10.975\nsquared_error = 0.294\nsamples = 6\nvalue = 2.437", fillcolor="#fbebdf"] ;
33 -> 34 ;
35 [label="total_bill <= 10.315\nsquared_error = 0.221\nsamples = 2\nvalue = 2.13", fillcolor="#fcefe6"] ;
34 -> 35 ;
36 [label="squared_error = 0.0\nsamples = 1\nvalue = 2.6", fillcolor="#fae9dc"] ;
35 -> 36 ;
37 [label="squared_error = 0.0\nsamples = 1\nvalue = 1.66", fillcolor="#fdf6f0"] ;
35 -> 37 ;
38 [label="total_bill <= 11.815\nsquared_error = 0.26\nsamples = 4\nvalue = 2.59", fillcolor="#fae9dc"] ;
34 -> 38 ;
39 [label="squared_error = 0.0\nsamples = 1\nvalue = 3.39", fillcolor="#f8deca"] ;
38 -> 39 ;
40 [label="total_bill <= 12.28\nsquared_error = 0.062\nsamples = 3\nvalue = 2.323", fillcolor="#fbece2"] ;
38 -> 40 ;
41 [label="squared_error = 0.0\nsamples = 1\nvalue = 1.97", fillcolor="#fcf1ea"] ;
40 -> 41 ;
42 [label="squared_error = 0.0\nsamples = 2\nvalue = 2.5", fillcolor="#fbeade"] ;
40 -> 42 ;
43 [label="squared_error = -0.0\nsamples = 2\nvalue = 2.0", fillcolor="#fcf1e9"] ;
33 -> 43 ;
44 [label="total_bill <= 12.065\nsquared_error = 0.038\nsamples = 7\nvalue = 1.847", fillcolor="#fdf3ec"] ;
30 -> 44 ;
45 [label="total_bill <= 10.75\nsquared_error = 0.049\nsamples = 4\nvalue = 1.782", fillcolor="#fdf4ee"] ;
44 -> 45 ;
46 [label="squared_error = 0.0\nsamples = 1\nvalue = 2.0", fillcolor="#fcf1e9"] ;
45 -> 46 ;
47 [label="total_bill <= 11.275\nsquared_error = 0.045\nsamples = 3\nvalue = 1.71", fillcolor="#fdf5ef"] ;
45 -> 47 ;
48 [label="squared_error = 0.0\nsamples = 1\nvalue = 1.5", fillcolor="#fef8f4"] ;
47 -> 48 ;
49 [label="total_bill <= 11.625\nsquared_error = 0.034\nsamples = 2\nvalue = 1.815", fillcolor="#fdf4ed"] ;
47 -> 49 ;
50 [label="squared_error = 0.0\nsamples = 1\nvalue = 2.0", fillcolor="#fcf1e9"] ;
49 -> 50 ;
51 [label="squared_error = 0.0\nsamples = 1\nvalue = 1.63", fillcolor="#fdf6f1"] ;
49 -> 51 ;
52 [label="sex <= 0.5\nsquared_error = 0.009\nsamples = 3\nvalue = 1.933", fillcolor="#fcf2ea"] ;
44 -> 52 ;
53 [label="total_bill <= 12.345\nsquared_error = 0.01\nsamples = 2\nvalue = 1.9", fillcolor="#fcf2eb"] ;
52 -> 53 ;
54 [label="squared_error = 0.0\nsamples = 1\nvalue = 2.0", fillcolor="#fcf1e9"] ;
53 -> 54 ;
55 [label="squared_error = 0.0\nsamples = 1\nvalue = 1.8", fillcolor="#fdf4ed"] ;
53 -> 55 ;
56 [label="squared_error = 0.0\nsamples = 1\nvalue = 2.0", fillcolor="#fcf1e9"] ;
52 -> 56 ;
57 [label="day <= 0.5\nsquared_error = 0.185\nsamples = 12\nvalue = 1.857", fillcolor="#fdf3ec"] ;
29 -> 57 ;
58 [label="total_bill <= 10.72\nsquared_error = 0.042\nsamples = 3\nvalue = 2.233", fillcolor="#fbeee4"] ;
57 -> 58 ;
59 [label="squared_error = 0.0\nsamples = 1\nvalue = 2.0", fillcolor="#fcf1e9"] ;
58 -> 59 ;
60 [label="sex <= 0.5\nsquared_error = 0.022\nsamples = 2\nvalue = 2.35", fillcolor="#fbece1"] ;
58 -> 60 ;
61 [label="squared_error = 0.0\nsamples = 1\nvalue = 2.5", fillcolor="#fbeade"] ;
60 -> 61 ;
62 [label="squared_error = -0.0\nsamples = 1\nvalue = 2.2", fillcolor="#fceee5"] ;
60 -> 62 ;
63 [label="sex <= 0.5\nsquared_error = 0.169\nsamples = 9\nvalue = 1.731", fillcolor="#fdf5ef"] ;
57 -> 63 ;
64 [label="total_bill <= 12.83\nsquared_error = 0.155\nsamples = 5\nvalue = 1.868", fillcolor="#fcf3ec"] ;
63 -> 64 ;
65 [label="total_bill <= 12.75\nsquared_error = 0.011\nsamples = 3\nvalue = 2.08", fillcolor="#fcf0e7"] ;
64 -> 65 ;
66 [label="total_bill <= 11.685\nsquared_error = 0.0\nsamples = 2\nvalue = 2.005", fillcolor="#fcf1e9"] ;
65 -> 66 ;
67 [label="squared_error = 0.0\nsamples = 1\nvalue = 2.0", fillcolor="#fcf1e9"] ;
66 -> 67 ;
68 [label="squared_error = 0.0\nsamples = 1\nvalue = 2.01", fillcolor="#fcf1e9"] ;
66 -> 68 ;
69 [label="squared_error = -0.0\nsamples = 1\nvalue = 2.23", fillcolor="#fbeee4"] ;
65 -> 69 ;
70 [label="total_bill <= 12.95\nsquared_error = 0.203\nsamples = 2\nvalue = 1.55", fillcolor="#fdf7f3"] ;
64 -> 70 ;
71 [label="squared_error = 0.0\nsamples = 1\nvalue = 1.1", fillcolor="#fffefd"] ;
70 -> 71 ;
72 [label="squared_error = 0.0\nsamples = 1\nvalue = 2.0", fillcolor="#fcf1e9"] ;
70 -> 72 ;
73 [label="total_bill <= 12.095\nsquared_error = 0.133\nsamples = 4\nvalue = 1.56", fillcolor="#fdf7f3"] ;
63 -> 73 ;
74 [label="total_bill <= 11.415\nsquared_error = 0.038\nsamples = 3\nvalue = 1.747", fillcolor="#fdf5ef"] ;
73 -> 74 ;
75 [label="total_bill <= 11.13\nsquared_error = 0.012\nsamples = 2\nvalue = 1.87", fillcolor="#fcf3ec"] ;
74 -> 75 ;
76 [label="squared_error = 0.0\nsamples = 1\nvalue = 1.98", fillcolor="#fcf1e9"] ;
75 -> 76 ;
77 [label="squared_error = -0.0\nsamples = 1\nvalue = 1.76", fillcolor="#fdf4ee"] ;
75 -> 77 ;
78 [label="squared_error = 0.0\nsamples = 1\nvalue = 1.5", fillcolor="#fef8f4"] ;
74 -> 78 ;
79 [label="squared_error = 0.0\nsamples = 1\nvalue = 1.0", fillcolor="#ffffff"] ;
73 -> 79 ;
80 [label="day <= 1.5\nsquared_error = 0.275\nsamples = 35\nvalue = 2.337", fillcolor="#fbece2"] ;
2 -> 80 ;
81 [label="total_bill <= 15.445\nsquared_error = 0.287\nsamples = 18\nvalue = 2.519", fillcolor="#fbeade"] ;
80 -> 81 ;
82 [label="sex <= 0.5\nsquared_error = 0.337\nsamples = 11\nvalue = 2.383", fillcolor="#fbece1"] ;
81 -> 82 ;
83 [label="day <= 0.5\nsquared_error = 0.238\nsamples = 4\nvalue = 2.795", fillcolor="#fae6d8"] ;
82 -> 83 ;
84 [label="squared_error = 0.0\nsamples = 1\nvalue = 3.48", fillcolor="#f8dcc8"] ;
83 -> 84 ;
85 [label="total_bill <= 14.895\nsquared_error = 0.109\nsamples = 3\nvalue = 2.567", fillcolor="#fae9dd"] ;
83 -> 85 ;
86 [label="smoker <= 0.5\nsquared_error = 0.022\nsamples = 2\nvalue = 2.35", fillcolor="#fbece1"] ;
85 -> 86 ;
87 [label="squared_error = 0.0\nsamples = 1\nvalue = 2.2", fillcolor="#fceee5"] ;
86 -> 87 ;
88 [label="squared_error = -0.0\nsamples = 1\nvalue = 2.5", fillcolor="#fbeade"] ;
86 -> 88 ;
89 [label="squared_error = 0.0\nsamples = 1\nvalue = 3.0", fillcolor="#f9e3d3"] ;
85 -> 89 ;
90 [label="smoker <= 0.5\nsquared_error = 0.24\nsamples = 7\nvalue = 2.147", fillcolor="#fcefe6"] ;
82 -> 90 ;
91 [label="total_bill <= 13.685\nsquared_error = 0.177\nsamples = 3\nvalue = 2.573", fillcolor="#fae9dc"] ;
90 -> 91 ;
92 [label="total_bill <= 13.325\nsquared_error = 0.13\nsamples = 2\nvalue = 2.36", fillcolor="#fbece1"] ;
91 -> 92 ;
93 [label="squared_error = 0.0\nsamples = 1\nvalue = 2.72", fillcolor="#fae7d9"] ;
92 -> 93 ;
94 [label="squared_error = -0.0\nsamples = 1\nvalue = 2.0", fillcolor="#fcf1e9"] ;
92 -> 94 ;
95 [label="squared_error = 0.0\nsamples = 1\nvalue = 3.0", fillcolor="#f9e3d3"] ;
91 -> 95 ;
96 [label="total_bill <= 13.615\nsquared_error = 0.049\nsamples = 4\nvalue = 1.828", fillcolor="#fdf3ed"] ;
90 -> 96 ;
97 [label="squared_error = 0.0\nsamples = 1\nvalue = 1.58", fillcolor="#fdf7f2"] ;
96 -> 97 ;
98 [label="total_bill <= 15.185\nsquared_error = 0.038\nsamples = 3\nvalue = 1.91", fillcolor="#fcf2eb"] ;
96 -> 98 ;
99 [label="total_bill <= 14.41\nsquared_error = 0.002\nsamples = 2\nvalue = 2.045", fillcolor="#fcf0e8"] ;
98 -> 99 ;
100 [label="squared_error = 0.0\nsamples = 1\nvalue = 2.0", fillcolor="#fcf1e9"] ;
99 -> 100 ;
101 [label="squared_error = -0.0\nsamples = 1\nvalue = 2.09", fillcolor="#fcf0e7"] ;
99 -> 101 ;
102 [label="squared_error = 0.0\nsamples = 1\nvalue = 1.64", fillcolor="#fdf6f1"] ;
98 -> 102 ;
103 [label="total_bill <= 16.01\nsquared_error = 0.135\nsamples = 7\nvalue = 2.733", fillcolor="#fae7d9"] ;
81 -> 103 ;
104 [label="sex <= 0.5\nsquared_error = 0.109\nsamples = 5\nvalue = 2.878", fillcolor="#fae5d6"] ;
103 -> 104 ;
105 [label="day <= 0.5\nsquared_error = 0.148\nsamples = 2\nvalue = 2.615", fillcolor="#fae8db"] ;
104 -> 105 ;
106 [label="squared_error = 0.0\nsamples = 1\nvalue = 3.0", fillcolor="#f9e3d3"] ;
105 -> 106 ;
107 [label="squared_error = -0.0\nsamples = 1\nvalue = 2.23", fillcolor="#fbeee4"] ;
105 -> 107 ;
108 [label="total_bill <= 15.75\nsquared_error = 0.006\nsamples = 3\nvalue = 3.053", fillcolor="#f9e2d2"] ;
104 -> 108 ;
109 [label="squared_error = 0.0\nsamples = 2\nvalue = 3.0", fillcolor="#f9e3d3"] ;
108 -> 109 ;
110 [label="squared_error = 0.0\nsamples = 1\nvalue = 3.16", fillcolor="#f9e1cf"] ;
108 -> 110 ;
111 [label="smoker <= 0.5\nsquared_error = 0.017\nsamples = 2\nvalue = 2.37", fillcolor="#fbece1"] ;
103 -> 111 ;
112 [label="squared_error = 0.0\nsamples = 1\nvalue = 2.24", fillcolor="#fbeee4"] ;
111 -> 112 ;
113 [label="squared_error = 0.0\nsamples = 1\nvalue = 2.5", fillcolor="#fbeade"] ;
111 -> 113 ;
114 [label="total_bill <= 14.935\nsquared_error = 0.19\nsamples = 17\nvalue = 2.144", fillcolor="#fcefe6"] ;
80 -> 114 ;
115 [label="day <= 2.5\nsquared_error = 0.209\nsamples = 9\nvalue = 2.374", fillcolor="#fbece1"] ;
114 -> 115 ;
116 [label="total_bill <= 13.875\nsquared_error = 0.15\nsamples = 5\nvalue = 2.638", fillcolor="#fae8db"] ;
115 -> 116 ;
117 [label="sex <= 0.5\nsquared_error = 0.093\nsamples = 2\nvalue = 2.305", fillcolor="#fbede2"] ;
116 -> 117 ;
118 [label="squared_error = 0.0\nsamples = 1\nvalue = 2.61", fillcolor="#fae8dc"] ;
117 -> 118 ;
119 [label="squared_error = 0.0\nsamples = 1\nvalue = 2.0", fillcolor="#fcf1e9"] ;
117 -> 119 ;
120 [label="total_bill <= 14.005\nsquared_error = 0.065\nsamples = 3\nvalue = 2.86", fillcolor="#fae5d6"] ;
116 -> 120 ;
121 [label="squared_error = 0.0\nsamples = 1\nvalue = 3.06", fillcolor="#f9e2d2"] ;
120 -> 121 ;
122 [label="sex <= 0.5\nsquared_error = 0.068\nsamples = 2\nvalue = 2.76", fillcolor="#fae6d8"] ;
120 -> 122 ;
123 [label="squared_error = 0.0\nsamples = 1\nvalue = 3.02", fillcolor="#f9e3d3"] ;
122 -> 123 ;
124 [label="squared_error = 0.0\nsamples = 1\nvalue = 2.5", fillcolor="#fbeade"] ;
122 -> 124 ;
125 [label="total_bill <= 14.205\nsquared_error = 0.086\nsamples = 4\nvalue = 2.045", fillcolor="#fcf0e8"] ;
115 -> 125 ;
126 [label="total_bill <= 13.465\nsquared_error = 0.023\nsamples = 3\nvalue = 1.893", fillcolor="#fcf2eb"] ;
125 -> 126 ;
127 [label="squared_error = 0.0\nsamples = 1\nvalue = 1.68", fillcolor="#fdf5f0"] ;
126 -> 127 ;
128 [label="squared_error = 0.0\nsamples = 2\nvalue = 2.0", fillcolor="#fcf1e9"] ;
126 -> 128 ;
129 [label="squared_error = 0.0\nsamples = 1\nvalue = 2.5", fillcolor="#fbeade"] ;
125 -> 129 ;
130 [label="day <= 2.5\nsquared_error = 0.041\nsamples = 8\nvalue = 1.885", fillcolor="#fcf3ec"] ;
114 -> 130 ;
131 [label="smoker <= 0.5\nsquared_error = 0.05\nsamples = 4\nvalue = 1.758", fillcolor="#fdf4ee"] ;
130 -> 131 ;
132 [label="total_bill <= 15.815\nsquared_error = 0.038\nsamples = 3\nvalue = 1.843", fillcolor="#fdf3ec"] ;
131 -> 132 ;
133 [label="total_bill <= 15.23\nsquared_error = 0.038\nsamples = 2\nvalue = 1.765", fillcolor="#fdf4ee"] ;
132 -> 133 ;
134 [label="squared_error = 0.0\nsamples = 1\nvalue = 1.96", fillcolor="#fcf2ea"] ;
133 -> 134 ;
135 [label="squared_error = -0.0\nsamples = 1\nvalue = 1.57", fillcolor="#fdf7f2"] ;
133 -> 135 ;
136 [label="squared_error = 0.0\nsamples = 1\nvalue = 2.0", fillcolor="#fcf1e9"] ;
132 -> 136 ;
137 [label="squared_error = 0.0\nsamples = 1\nvalue = 1.5", fillcolor="#fef8f4"] ;
131 -> 137 ;
138 [label="total_bill <= 15.99\nsquared_error = 0.0\nsamples = 4\nvalue = 2.012", fillcolor="#fcf1e9"] ;
130 -> 138 ;
139 [label="total_bill <= 15.965\nsquared_error = 0.0\nsamples = 3\nvalue = 2.017", fillcolor="#fcf1e9"] ;
138 -> 139 ;
140 [label="total_bill <= 15.715\nsquared_error = 0.0\nsamples = 2\nvalue = 2.01", fillcolor="#fcf1e9"] ;
139 -> 140 ;
141 [label="squared_error = 0.0\nsamples = 1\nvalue = 2.02", fillcolor="#fcf1e9"] ;
140 -> 141 ;
142 [label="squared_error = 0.0\nsamples = 1\nvalue = 2.0", fillcolor="#fcf1e9"] ;
140 -> 142 ;
143 [label="squared_error = 0.0\nsamples = 1\nvalue = 2.03", fillcolor="#fcf1e8"] ;
139 -> 143 ;
144 [label="squared_error = 0.0\nsamples = 1\nvalue = 2.0", fillcolor="#fcf1e9"] ;
138 -> 144 ;
145 [label="smoker <= 0.5\nsquared_error = 0.526\nsamples = 43\nvalue = 3.024", fillcolor="#f9e3d2"] ;
1 -> 145 ;
146 [label="total_bill <= 16.3\nsquared_error = 0.493\nsamples = 32\nvalue = 2.859", fillcolor="#fae5d6"] ;
145 -> 146 ;
147 [label="squared_error = 0.0\nsamples = 1\nvalue = 3.71", fillcolor="#f7d9c3"] ;
146 -> 147 ;
148 [label="total_bill <= 17.03\nsquared_error = 0.485\nsamples = 31\nvalue = 2.831", fillcolor="#fae5d7"] ;
146 -> 148 ;
149 [label="total_bill <= 16.96\nsquared_error = 0.708\nsamples = 5\nvalue = 2.356", fillcolor="#fbece1"] ;
148 -> 149 ;
150 [label="total_bill <= 16.545\nsquared_error = 0.319\nsamples = 4\nvalue = 2.692", fillcolor="#fae7da"] ;
149 -> 150 ;
151 [label="day <= 2.0\nsquared_error = 0.022\nsamples = 2\nvalue = 2.15", fillcolor="#fcefe6"] ;
150 -> 151 ;
152 [label="squared_error = 0.0\nsamples = 1\nvalue = 2.0", fillcolor="#fcf1e9"] ;
151 -> 152 ;
153 [label="squared_error = 0.0\nsamples = 1\nvalue = 2.3", fillcolor="#fbede2"] ;
151 -> 153 ;
154 [label="total_bill <= 16.795\nsquared_error = 0.027\nsamples = 2\nvalue = 3.235", fillcolor="#f9e0ce"] ;
150 -> 154 ;
155 [label="squared_error = 0.0\nsamples = 1\nvalue = 3.4", fillcolor="#f8ddca"] ;
154 -> 155 ;
156 [label="squared_error = -0.0\nsamples = 1\nvalue = 3.07", fillcolor="#f9e2d1"] ;
154 -> 156 ;
157 [label="squared_error = -0.0\nsamples = 1\nvalue = 1.01", fillcolor="#ffffff"] ;
149 -> 157 ;
158 [label="total_bill <= 18.315\nsquared_error = 0.39\nsamples = 26\nvalue = 2.923", fillcolor="#f9e4d5"] ;
148 -> 158 ;
159 [label="total_bill <= 17.87\nsquared_error = 0.373\nsamples = 14\nvalue = 3.124", fillcolor="#f9e1d0"] ;
158 -> 159 ;
160 [label="total_bill <= 17.8\nsquared_error = 0.27\nsamples = 9\nvalue = 2.85", fillcolor="#fae5d6"] ;
159 -> 160 ;
161 [label="sex <= 0.5\nsquared_error = 0.133\nsamples = 8\nvalue = 2.988", fillcolor="#f9e3d3"] ;
160 -> 161 ;
162 [label="day <= 1.5\nsquared_error = 0.056\nsamples = 3\nvalue = 3.333", fillcolor="#f8decc"] ;
161 -> 162 ;
163 [label="squared_error = 0.0\nsamples = 1\nvalue = 3.0", fillcolor="#f9e3d3"] ;
162 -> 163 ;
164 [label="squared_error = 0.0\nsamples = 2\nvalue = 3.5", fillcolor="#f8dcc8"] ;
162 -> 164 ;
165 [label="total_bill <= 17.685\nsquared_error = 0.065\nsamples = 5\nvalue = 2.78", fillcolor="#fae6d8"] ;
161 -> 165 ;
166 [label="total_bill <= 17.375\nsquared_error = 0.006\nsamples = 4\nvalue = 2.658", fillcolor="#fae8db"] ;
165 -> 166 ;
167 [label="total_bill <= 17.275\nsquared_error = 0.0\nsamples = 2\nvalue = 2.725", fillcolor="#fae7d9"] ;
166 -> 167 ;
168 [label="squared_error = 0.0\nsamples = 1\nvalue = 2.74", fillcolor="#fae7d9"] ;
167 -> 168 ;
169 [label="squared_error = 0.0\nsamples = 1\nvalue = 2.71", fillcolor="#fae7d9"] ;
167 -> 169 ;
170 [label="total_bill <= 17.525\nsquared_error = 0.002\nsamples = 2\nvalue = 2.59", fillcolor="#fae9dc"] ;
166 -> 170 ;
171 [label="squared_error = 0.0\nsamples = 1\nvalue = 2.54", fillcolor="#fbe9dd"] ;
170 -> 171 ;
172 [label="squared_error = 0.0\nsamples = 1\nvalue = 2.64", fillcolor="#fae8db"] ;
170 -> 172 ;
173 [label="squared_error = 0.0\nsamples = 1\nvalue = 3.27", fillcolor="#f8dfcd"] ;
165 -> 173 ;
174 [label="squared_error = 0.0\nsamples = 1\nvalue = 1.75", fillcolor="#fdf4ee"] ;
160 -> 174 ;
175 [label="day <= 1.5\nsquared_error = 0.179\nsamples = 5\nvalue = 3.618", fillcolor="#f7dac5"] ;
159 -> 175 ;
176 [label="total_bill <= 18.08\nsquared_error = 0.026\nsamples = 2\nvalue = 3.92", fillcolor="#f7d6bf"] ;
175 -> 176 ;
177 [label="squared_error = 0.0\nsamples = 1\nvalue = 4.08", fillcolor="#f6d4bb"] ;
176 -> 177 ;
178 [label="squared_error = 0.0\nsamples = 1\nvalue = 3.76", fillcolor="#f7d8c2"] ;
176 -> 178 ;
179 [label="total_bill <= 18.27\nsquared_error = 0.181\nsamples = 3\nvalue = 3.417", fillcolor="#f8ddca"] ;
175 -> 179 ;
180 [label="total_bill <= 18.15\nsquared_error = 0.016\nsamples = 2\nvalue = 3.125", fillcolor="#f9e1d0"] ;
179 -> 180 ;
181 [label="squared_error = 0.0\nsamples = 1\nvalue = 3.0", fillcolor="#f9e3d3"] ;
180 -> 181 ;
182 [label="squared_error = 0.0\nsamples = 1\nvalue = 3.25", fillcolor="#f8e0ce"] ;
180 -> 182 ;
183 [label="squared_error = 0.0\nsamples = 1\nvalue = 4.0", fillcolor="#f6d5bd"] ;
179 -> 183 ;
184 [label="sex <= 0.5\nsquared_error = 0.307\nsamples = 12\nvalue = 2.688", fillcolor="#fae7da"] ;
158 -> 184 ;
185 [label="total_bill <= 19.96\nsquared_error = 0.012\nsamples = 4\nvalue = 2.895", fillcolor="#fae4d5"] ;
184 -> 185 ;
186 [label="squared_error = 0.0\nsamples = 2\nvalue = 3.0", fillcolor="#f9e3d3"] ;
185 -> 186 ;
187 [label="total_bill <= 20.28\nsquared_error = 0.002\nsamples = 2\nvalue = 2.79", fillcolor="#fae6d8"] ;
185 -> 187 ;
188 [label="squared_error = 0.0\nsamples = 1\nvalue = 2.83", fillcolor="#fae5d7"] ;
187 -> 188 ;
189 [label="squared_error = 0.0\nsamples = 1\nvalue = 2.75", fillcolor="#fae7d9"] ;
187 -> 189 ;
190 [label="day <= 2.5\nsquared_error = 0.422\nsamples = 8\nvalue = 2.584", fillcolor="#fae9dc"] ;
184 -> 190 ;
191 [label="total_bill <= 19.63\nsquared_error = 0.291\nsamples = 7\nvalue = 2.739", fillcolor="#fae7d9"] ;
190 -> 191 ;
192 [label="total_bill <= 18.96\nsquared_error = 0.17\nsamples = 3\nvalue = 3.003", fillcolor="#f9e3d3"] ;
191 -> 192 ;
193 [label="day <= 1.5\nsquared_error = 0.062\nsamples = 2\nvalue = 2.75", fillcolor="#fae7d9"] ;
192 -> 193 ;
194 [label="squared_error = 0.0\nsamples = 1\nvalue = 2.5", fillcolor="#fbeade"] ;
193 -> 194 ;
195 [label="squared_error = 0.0\nsamples = 1\nvalue = 3.0", fillcolor="#f9e3d3"] ;
193 -> 195 ;
196 [label="squared_error = -0.0\nsamples = 1\nvalue = 3.51", fillcolor="#f8dcc8"] ;
192 -> 196 ;
197 [label="day <= 1.5\nsquared_error = 0.289\nsamples = 4\nvalue = 2.54", fillcolor="#fbe9dd"] ;
191 -> 197 ;
198 [label="total_bill <= 20.155\nsquared_error = 0.256\nsamples = 3\nvalue = 2.72", fillcolor="#fae7d9"] ;
197 -> 198 ;
199 [label="squared_error = 0.0\nsamples = 1\nvalue = 3.15", fillcolor="#f9e1d0"] ;
198 -> 199 ;
200 [label="total_bill <= 20.34\nsquared_error = 0.245\nsamples = 2\nvalue = 2.505", fillcolor="#fbeade"] ;
198 -> 200 ;
201 [label="squared_error = 0.0\nsamples = 1\nvalue = 2.01", fillcolor="#fcf1e9"] ;
200 -> 201 ;
202 [label="squared_error = 0.0\nsamples = 1\nvalue = 3.0", fillcolor="#f9e3d3"] ;
200 -> 202 ;
203 [label="squared_error = 0.0\nsamples = 1\nvalue = 2.0", fillcolor="#fcf1e9"] ;
197 -> 203 ;
204 [label="squared_error = 0.0\nsamples = 1\nvalue = 1.5", fillcolor="#fef8f4"] ;
190 -> 204 ;
205 [label="total_bill <= 16.36\nsquared_error = 0.312\nsamples = 11\nvalue = 3.505", fillcolor="#f8dcc8"] ;
145 -> 205 ;
206 [label="squared_error = 0.0\nsamples = 1\nvalue = 4.3", fillcolor="#f5d1b6"] ;
205 -> 206 ;
207 [label="total_bill <= 16.435\nsquared_error = 0.274\nsamples = 10\nvalue = 3.426", fillcolor="#f8ddca"] ;
205 -> 207 ;
208 [label="squared_error = 0.0\nsamples = 1\nvalue = 2.5", fillcolor="#fbeade"] ;
207 -> 208 ;
209 [label="total_bill <= 19.625\nsquared_error = 0.198\nsamples = 9\nvalue = 3.529", fillcolor="#f8dcc7"] ;
207 -> 209 ;
210 [label="total_bill <= 17.165\nsquared_error = 0.162\nsamples = 8\nvalue = 3.446", fillcolor="#f8ddc9"] ;
209 -> 210 ;
211 [label="sex <= 0.5\nsquared_error = 0.132\nsamples = 3\nvalue = 3.743", fillcolor="#f7d9c3"] ;
210 -> 211 ;
212 [label="squared_error = 0.0\nsamples = 1\nvalue = 3.23", fillcolor="#f9e0ce"] ;
211 -> 212 ;
213 [label="squared_error = 0.0\nsamples = 2\nvalue = 4.0", fillcolor="#f6d5bd"] ;
211 -> 213 ;
214 [label="total_bill <= 18.035\nsquared_error = 0.095\nsamples = 5\nvalue = 3.268", fillcolor="#f8dfcd"] ;
210 -> 214 ;
215 [label="day <= 1.5\nsquared_error = 0.002\nsamples = 2\nvalue = 3.04", fillcolor="#f9e2d2"] ;
214 -> 215 ;
216 [label="squared_error = 0.0\nsamples = 1\nvalue = 3.08", fillcolor="#f9e2d1"] ;
215 -> 216 ;
217 [label="squared_error = 0.0\nsamples = 1\nvalue = 3.0", fillcolor="#f9e3d3"] ;
215 -> 217 ;
218 [label="day <= 2.5\nsquared_error = 0.099\nsamples = 3\nvalue = 3.42", fillcolor="#f8ddca"] ;
214 -> 218 ;
219 [label="day <= 1.5\nsquared_error = 0.017\nsamples = 2\nvalue = 3.63", fillcolor="#f7dac5"] ;
218 -> 219 ;
220 [label="squared_error = 0.0\nsamples = 1\nvalue = 3.76", fillcolor="#f7d8c2"] ;
219 -> 220 ;
221 [label="squared_error = 0.0\nsamples = 1\nvalue = 3.5", fillcolor="#f8dcc8"] ;
219 -> 221 ;
222 [label="squared_error = 0.0\nsamples = 1\nvalue = 3.0", fillcolor="#f9e3d3"] ;
218 -> 222 ;
223 [label="squared_error = 0.0\nsamples = 1\nvalue = 4.19", fillcolor="#f6d2b9"] ;
209 -> 223 ;
224 [label="total_bill <= 46.81\nsquared_error = 2.547\nsamples = 76\nvalue = 4.076", fillcolor="#f6d4bb"] ;
0 -> 224 [labeldistance=2.5, labelangle=-45, headlabel="False"] ;
225 [label="smoker <= 0.5\nsquared_error = 1.709\nsamples = 73\nvalue = 3.891", fillcolor="#f7d7bf"] ;
224 -> 225 ;
226 [label="total_bill <= 28.79\nsquared_error = 1.608\nsamples = 40\nvalue = 4.266", fillcolor="#f6d1b7"] ;
225 -> 226 ;
227 [label="total_bill <= 27.875\nsquared_error = 0.985\nsamples = 26\nvalue = 3.649", fillcolor="#f7dac5"] ;
226 -> 227 ;
228 [label="total_bill <= 20.725\nsquared_error = 0.918\nsamples = 25\nvalue = 3.713", fillcolor="#f7d9c3"] ;
227 -> 228 ;
229 [label="squared_error = 0.0\nsamples = 1\nvalue = 5.0", fillcolor="#f3c7a7"] ;
228 -> 229 ;
230 [label="total_bill <= 20.84\nsquared_error = 0.884\nsamples = 24\nvalue = 3.659", fillcolor="#f7dac4"] ;
228 -> 230 ;
231 [label="squared_error = 0.0\nsamples = 1\nvalue = 2.24", fillcolor="#fbeee4"] ;
230 -> 231 ;
232 [label="total_bill <= 24.65\nsquared_error = 0.831\nsamples = 23\nvalue = 3.721", fillcolor="#f7d9c3"] ;
230 -> 232 ;
233 [label="day <= 2.5\nsquared_error = 0.399\nsamples = 14\nvalue = 3.522", fillcolor="#f8dcc8"] ;
232 -> 233 ;
234 [label="total_bill <= 22.36\nsquared_error = 0.247\nsamples = 11\nvalue = 3.739", fillcolor="#f7d9c3"] ;
233 -> 234 ;
235 [label="total_bill <= 21.6\nsquared_error = 0.314\nsamples = 5\nvalue = 4.076", fillcolor="#f6d4bb"] ;
234 -> 235 ;
236 [label="day <= 1.5\nsquared_error = 0.075\nsamples = 3\nvalue = 3.693", fillcolor="#f7d9c4"] ;
235 -> 236 ;
237 [label="squared_error = 0.0\nsamples = 1\nvalue = 4.08", fillcolor="#f6d4bb"] ;
236 -> 237 ;
238 [label="squared_error = 0.0\nsamples = 2\nvalue = 3.5", fillcolor="#f8dcc8"] ;
236 -> 238 ;
239 [label="day <= 1.5\nsquared_error = 0.122\nsamples = 2\nvalue = 4.65", fillcolor="#f4ccaf"] ;
235 -> 239 ;
240 [label="squared_error = 0.0\nsamples = 1\nvalue = 4.3", fillcolor="#f5d1b6"] ;
239 -> 240 ;
241 [label="squared_error = -0.0\nsamples = 1\nvalue = 5.0", fillcolor="#f3c7a7"] ;
239 -> 241 ;
242 [label="total_bill <= 23.87\nsquared_error = 0.018\nsamples = 6\nvalue = 3.458", fillcolor="#f8ddc9"] ;
234 -> 242 ;
243 [label="total_bill <= 22.62\nsquared_error = 0.011\nsamples = 3\nvalue = 3.353", fillcolor="#f8decb"] ;
242 -> 243 ;
244 [label="squared_error = 0.0\nsamples = 1\nvalue = 3.5", fillcolor="#f8dcc8"] ;
243 -> 244 ;
245 [label="sex <= 0.5\nsquared_error = 0.001\nsamples = 2\nvalue = 3.28", fillcolor="#f8dfcd"] ;
243 -> 245 ;
246 [label="squared_error = 0.0\nsamples = 1\nvalue = 3.25", fillcolor="#f8e0ce"] ;
245 -> 246 ;
247 [label="squared_error = -0.0\nsamples = 1\nvalue = 3.31", fillcolor="#f8dfcc"] ;
245 -> 247 ;
248 [label="sex <= 0.5\nsquared_error = 0.003\nsamples = 3\nvalue = 3.563", fillcolor="#f8dbc7"] ;
242 -> 248 ;
249 [label="squared_error = 0.0\nsamples = 1\nvalue = 3.61", fillcolor="#f7dac6"] ;
248 -> 249 ;
250 [label="total_bill <= 24.29\nsquared_error = 0.004\nsamples = 2\nvalue = 3.54", fillcolor="#f8dbc7"] ;
248 -> 250 ;
251 [label="squared_error = 0.0\nsamples = 1\nvalue = 3.6", fillcolor="#f7dbc6"] ;
250 -> 251 ;
252 [label="squared_error = -0.0\nsamples = 1\nvalue = 3.48", fillcolor="#f8dcc8"] ;
250 -> 252 ;
253 [label="total_bill <= 22.79\nsquared_error = 0.149\nsamples = 3\nvalue = 2.727", fillcolor="#fae7d9"] ;
233 -> 253 ;
254 [label="squared_error = 0.0\nsamples = 2\nvalue = 3.0", fillcolor="#f9e3d3"] ;
253 -> 254 ;
255 [label="squared_error = 0.0\nsamples = 1\nvalue = 2.18", fillcolor="#fceee5"] ;
253 -> 255 ;
256 [label="day <= 1.5\nsquared_error = 1.347\nsamples = 9\nvalue = 4.03", fillcolor="#f6d5bc"] ;
232 -> 256 ;
257 [label="squared_error = 0.0\nsamples = 1\nvalue = 1.5", fillcolor="#fef8f4"] ;
256 -> 257 ;
258 [label="total_bill <= 24.855\nsquared_error = 0.615\nsamples = 8\nvalue = 4.346", fillcolor="#f5d0b5"] ;
256 -> 258 ;
259 [label="squared_error = 0.0\nsamples = 1\nvalue = 5.85", fillcolor="#f1bb94"] ;
258 -> 259 ;
260 [label="total_bill <= 26.965\nsquared_error = 0.334\nsamples = 7\nvalue = 4.131", fillcolor="#f6d3ba"] ;
258 -> 260 ;
261 [label="total_bill <= 26.295\nsquared_error = 0.291\nsamples = 5\nvalue = 3.984", fillcolor="#f6d5bd"] ;
260 -> 261 ;
262 [label="sex <= 0.5\nsquared_error = 0.131\nsamples = 4\nvalue = 4.2", fillcolor="#f6d2b9"] ;
261 -> 262 ;
263 [label="total_bill <= 25.355\nsquared_error = 0.016\nsamples = 2\nvalue = 3.875", fillcolor="#f7d7c0"] ;
262 -> 263 ;
264 [label="squared_error = 0.0\nsamples = 1\nvalue = 3.75", fillcolor="#f7d8c2"] ;
263 -> 264 ;
265 [label="squared_error = 0.0\nsamples = 1\nvalue = 4.0", fillcolor="#f6d5bd"] ;
263 -> 265 ;
266 [label="total_bill <= 25.425\nsquared_error = 0.034\nsamples = 2\nvalue = 4.525", fillcolor="#f5ceb1"] ;
262 -> 266 ;
267 [label="squared_error = 0.0\nsamples = 1\nvalue = 4.71", fillcolor="#f4cbad"] ;
266 -> 267 ;
268 [label="squared_error = -0.0\nsamples = 1\nvalue = 4.34", fillcolor="#f5d0b6"] ;
266 -> 268 ;
269 [label="squared_error = -0.0\nsamples = 1\nvalue = 3.12", fillcolor="#f9e1d0"] ;
261 -> 269 ;
270 [label="sex <= 0.5\nsquared_error = 0.25\nsamples = 2\nvalue = 4.5", fillcolor="#f5ceb2"] ;
260 -> 270 ;
271 [label="squared_error = 0.0\nsamples = 1\nvalue = 5.0", fillcolor="#f3c7a7"] ;
270 -> 271 ;
272 [label="squared_error = 0.0\nsamples = 1\nvalue = 4.0", fillcolor="#f6d5bd"] ;
270 -> 272 ;
273 [label="squared_error = 0.0\nsamples = 1\nvalue = 2.05", fillcolor="#fcf0e8"] ;
227 -> 273 ;
274 [label="total_bill <= 37.625\nsquared_error = 0.749\nsamples = 14\nvalue = 5.411", fillcolor="#f2c19e"] ;
226 -> 274 ;
275 [label="sex <= 0.5\nsquared_error = 0.417\nsamples = 13\nvalue = 5.244", fillcolor="#f3c4a2"] ;
274 -> 275 ;
276 [label="total_bill <= 29.825\nsquared_error = 0.129\nsamples = 6\nvalue = 4.897", fillcolor="#f4c8a9"] ;
275 -> 276 ;
277 [label="squared_error = 0.0\nsamples = 1\nvalue = 4.2", fillcolor="#f6d2b9"] ;
276 -> 277 ;
278 [label="total_bill <= 35.545\nsquared_error = 0.038\nsamples = 5\nvalue = 5.036", fillcolor="#f3c6a6"] ;
276 -> 278 ;
279 [label="total_bill <= 35.045\nsquared_error = 0.006\nsamples = 4\nvalue = 5.127", fillcolor="#f3c5a4"] ;
278 -> 279 ;
280 [label="total_bill <= 32.33\nsquared_error = 0.001\nsamples = 3\nvalue = 5.17", fillcolor="#f3c5a3"] ;
279 -> 280 ;
281 [label="squared_error = 0.0\nsamples = 1\nvalue = 5.14", fillcolor="#f3c5a4"] ;
280 -> 281 ;
282 [label="day <= 2.5\nsquared_error = 0.0\nsamples = 2\nvalue = 5.185", fillcolor="#f3c4a3"] ;
280 -> 282 ;
283 [label="squared_error = 0.0\nsamples = 1\nvalue = 5.2", fillcolor="#f3c4a3"] ;
282 -> 283 ;
284 [label="squared_error = -0.0\nsamples = 1\nvalue = 5.17", fillcolor="#f3c5a3"] ;
282 -> 284 ;
285 [label="squared_error = 0.0\nsamples = 1\nvalue = 5.0", fillcolor="#f3c7a7"] ;
279 -> 285 ;
286 [label="squared_error = -0.0\nsamples = 1\nvalue = 4.67", fillcolor="#f4ccae"] ;
278 -> 286 ;
287 [label="total_bill <= 32.055\nsquared_error = 0.471\nsamples = 7\nvalue = 5.541", fillcolor="#f2bf9b"] ;
275 -> 287 ;
288 [label="total_bill <= 30.835\nsquared_error = 0.245\nsamples = 5\nvalue = 5.218", fillcolor="#f3c4a2"] ;
287 -> 288 ;
289 [label="total_bill <= 29.48\nsquared_error = 0.123\nsamples = 3\nvalue = 5.53", fillcolor="#f2c09b"] ;
288 -> 289 ;
290 [label="squared_error = 0.0\nsamples = 1\nvalue = 5.92", fillcolor="#f1ba93"] ;
289 -> 290 ;
291 [label="total_bill <= 30.165\nsquared_error = 0.07\nsamples = 2\nvalue = 5.335", fillcolor="#f2c2a0"] ;
289 -> 291 ;
292 [label="squared_error = 0.0\nsamples = 1\nvalue = 5.07", fillcolor="#f3c6a5"] ;
291 -> 292 ;
293 [label="squared_error = -0.0\nsamples = 1\nvalue = 5.6", fillcolor="#f2bf9a"] ;
291 -> 293 ;
294 [label="day <= 1.5\nsquared_error = 0.062\nsamples = 2\nvalue = 4.75", fillcolor="#f4caac"] ;
288 -> 294 ;
295 [label="squared_error = 0.0\nsamples = 1\nvalue = 5.0", fillcolor="#f3c7a7"] ;
294 -> 295 ;
296 [label="squared_error = 0.0\nsamples = 1\nvalue = 4.5", fillcolor="#f5ceb2"] ;
294 -> 296 ;
297 [label="day <= 2.5\nsquared_error = 0.122\nsamples = 2\nvalue = 6.35", fillcolor="#f0b489"] ;
287 -> 297 ;
298 [label="squared_error = 0.0\nsamples = 1\nvalue = 6.0", fillcolor="#f1b991"] ;
297 -> 298 ;
299 [label="squared_error = 0.0\nsamples = 1\nvalue = 6.7", fillcolor="#efaf82"] ;
297 -> 299 ;
300 [label="squared_error = 0.0\nsamples = 1\nvalue = 7.58", fillcolor="#eca36e"] ;
274 -> 300 ;
301 [label="total_bill <= 23.67\nsquared_error = 1.455\nsamples = 33\nvalue = 3.438", fillcolor="#f8ddc9"] ;
225 -> 301 ;
302 [label="total_bill <= 23.135\nsquared_error = 1.399\nsamples = 8\nvalue = 4.196", fillcolor="#f6d2b9"] ;
301 -> 302 ;
303 [label="total_bill <= 20.77\nsquared_error = 0.236\nsamples = 6\nvalue = 3.57", fillcolor="#f8dbc6"] ;
302 -> 303 ;
304 [label="day <= 2.0\nsquared_error = 0.001\nsamples = 2\nvalue = 4.03", fillcolor="#f6d5bc"] ;
303 -> 304 ;
305 [label="squared_error = 0.0\nsamples = 1\nvalue = 4.06", fillcolor="#f6d4bc"] ;
304 -> 305 ;
306 [label="squared_error = 0.0\nsamples = 1\nvalue = 4.0", fillcolor="#f6d5bd"] ;
304 -> 306 ;
307 [label="total_bill <= 22.27\nsquared_error = 0.196\nsamples = 4\nvalue = 3.34", fillcolor="#f8decc"] ;
303 -> 307 ;
308 [label="total_bill <= 21.565\nsquared_error = 0.004\nsamples = 2\nvalue = 2.94", fillcolor="#f9e4d4"] ;
307 -> 308 ;
309 [label="squared_error = 0.0\nsamples = 1\nvalue = 3.0", fillcolor="#f9e3d3"] ;
308 -> 309 ;
310 [label="squared_error = 0.0\nsamples = 1\nvalue = 2.88", fillcolor="#fae5d6"] ;
308 -> 310 ;
311 [label="total_bill <= 22.76\nsquared_error = 0.068\nsamples = 2\nvalue = 3.74", fillcolor="#f7d9c3"] ;
307 -> 311 ;
312 [label="squared_error = 0.0\nsamples = 1\nvalue = 3.48", fillcolor="#f8dcc8"] ;
311 -> 312 ;
313 [label="squared_error = -0.0\nsamples = 1\nvalue = 4.0", fillcolor="#f6d5bd"] ;
311 -> 313 ;
314 [label="total_bill <= 23.25\nsquared_error = 0.181\nsamples = 2\nvalue = 6.075", fillcolor="#f0b88f"] ;
302 -> 314 ;
315 [label="squared_error = 0.0\nsamples = 1\nvalue = 6.5", fillcolor="#efb286"] ;
314 -> 315 ;
316 [label="squared_error = -0.0\nsamples = 1\nvalue = 5.65", fillcolor="#f2be99"] ;
314 -> 316 ;
317 [label="day <= 2.5\nsquared_error = 1.23\nsamples = 25\nvalue = 3.195", fillcolor="#f9e0cf"] ;
301 -> 317 ;
318 [label="total_bill <= 24.74\nsquared_error = 1.14\nsamples = 24\nvalue = 3.12", fillcolor="#f9e1d0"] ;
317 -> 318 ;
319 [label="total_bill <= 24.14\nsquared_error = 0.0\nsamples = 2\nvalue = 2.015", fillcolor="#fcf1e9"] ;
318 -> 319 ;
320 [label="squared_error = 0.0\nsamples = 1\nvalue = 2.0", fillcolor="#fcf1e9"] ;
319 -> 320 ;
321 [label="squared_error = 0.0\nsamples = 1\nvalue = 2.03", fillcolor="#fcf1e8"] ;
319 -> 321 ;
322 [label="total_bill <= 28.57\nsquared_error = 1.122\nsamples = 22\nvalue = 3.22", fillcolor="#f9e0ce"] ;
318 -> 322 ;
323 [label="total_bill <= 28.16\nsquared_error = 1.718\nsamples = 7\nvalue = 3.763", fillcolor="#f7d8c2"] ;
322 -> 323 ;
324 [label="sex <= 0.5\nsquared_error = 0.548\nsamples = 6\nvalue = 3.307", fillcolor="#f8dfcc"] ;
323 -> 324 ;
325 [label="total_bill <= 27.02\nsquared_error = 0.325\nsamples = 2\nvalue = 2.57", fillcolor="#fae9dc"] ;
324 -> 325 ;
326 [label="squared_error = 0.0\nsamples = 1\nvalue = 3.14", fillcolor="#f9e1d0"] ;
325 -> 326 ;
327 [label="squared_error = -0.0\nsamples = 1\nvalue = 2.0", fillcolor="#fcf1e9"] ;
325 -> 327 ;
328 [label="total_bill <= 27.715\nsquared_error = 0.252\nsamples = 4\nvalue = 3.675", fillcolor="#f7dac4"] ;
324 -> 328 ;
329 [label="total_bill <= 25.9\nsquared_error = 0.134\nsamples = 3\nvalue = 3.9", fillcolor="#f7d6bf"] ;
328 -> 329 ;
330 [label="squared_error = 0.0\nsamples = 1\nvalue = 4.29", fillcolor="#f5d1b7"] ;
329 -> 330 ;
331 [label="day <= 0.5\nsquared_error = 0.087\nsamples = 2\nvalue = 3.705", fillcolor="#f7d9c3"] ;
329 -> 331 ;
332 [label="squared_error = 0.0\nsamples = 1\nvalue = 4.0", fillcolor="#f6d5bd"] ;
331 -> 332 ;
333 [label="squared_error = 0.0\nsamples = 1\nvalue = 3.41", fillcolor="#f8ddca"] ;
331 -> 333 ;
334 [label="squared_error = 0.0\nsamples = 1\nvalue = 3.0", fillcolor="#f9e3d3"] ;
328 -> 334 ;
335 [label="squared_error = 0.0\nsamples = 1\nvalue = 6.5", fillcolor="#efb286"] ;
323 -> 335 ;
336 [label="total_bill <= 32.865\nsquared_error = 0.643\nsamples = 15\nvalue = 2.967", fillcolor="#f9e3d4"] ;
322 -> 336 ;
337 [label="total_bill <= 32.34\nsquared_error = 0.546\nsamples = 6\nvalue = 2.407", fillcolor="#fbebe0"] ;
336 -> 337 ;
338 [label="total_bill <= 31.155\nsquared_error = 0.288\nsamples = 5\nvalue = 2.654", fillcolor="#fae8db"] ;
337 -> 338 ;
339 [label="sex <= 0.5\nsquared_error = 0.274\nsamples = 4\nvalue = 2.522", fillcolor="#fbeade"] ;
338 -> 339 ;
340 [label="squared_error = 0.0\nsamples = 1\nvalue = 3.09", fillcolor="#f9e2d1"] ;
339 -> 340 ;
341 [label="total_bill <= 29.515\nsquared_error = 0.222\nsamples = 3\nvalue = 2.333", fillcolor="#fbece2"] ;
339 -> 341 ;
342 [label="squared_error = 0.0\nsamples = 1\nvalue = 3.0", fillcolor="#f9e3d3"] ;
341 -> 342 ;
343 [label="squared_error = 0.0\nsamples = 2\nvalue = 2.0", fillcolor="#fcf1e9"] ;
341 -> 343 ;
344 [label="squared_error = 0.0\nsamples = 1\nvalue = 3.18", fillcolor="#f9e0cf"] ;
338 -> 344 ;
345 [label="squared_error = -0.0\nsamples = 1\nvalue = 1.17", fillcolor="#fffdfb"] ;
337 -> 345 ;
346 [label="day <= 0.5\nsquared_error = 0.358\nsamples = 9\nvalue = 3.341", fillcolor="#f8decb"] ;
336 -> 346 ;
347 [label="squared_error = 0.0\nsamples = 1\nvalue = 4.73", fillcolor="#f4cbad"] ;
346 -> 347 ;
348 [label="day <= 1.5\nsquared_error = 0.132\nsamples = 8\nvalue = 3.168", fillcolor="#f9e1cf"] ;
346 -> 348 ;
349 [label="sex <= 0.5\nsquared_error = 0.056\nsamples = 3\nvalue = 2.833", fillcolor="#fae5d7"] ;
348 -> 349 ;
350 [label="squared_error = 0.0\nsamples = 1\nvalue = 2.5", fillcolor="#fbeade"] ;
349 -> 350 ;
351 [label="squared_error = 0.0\nsamples = 2\nvalue = 3.0", fillcolor="#f9e3d3"] ;
349 -> 351 ;
352 [label="total_bill <= 33.765\nsquared_error = 0.07\nsamples = 5\nvalue = 3.368", fillcolor="#f8decb"] ;
348 -> 352 ;
353 [label="squared_error = 0.0\nsamples = 1\nvalue = 3.11", fillcolor="#f9e1d1"] ;
352 -> 353 ;
354 [label="total_bill <= 37.6\nsquared_error = 0.067\nsamples = 4\nvalue = 3.432", fillcolor="#f8ddc9"] ;
352 -> 354 ;
355 [label="total_bill <= 34.64\nsquared_error = 0.004\nsamples = 2\nvalue = 3.615", fillcolor="#f7dac5"] ;
354 -> 355 ;
356 [label="squared_error = 0.0\nsamples = 1\nvalue = 3.55", fillcolor="#f8dbc7"] ;
355 -> 356 ;
357 [label="squared_error = -0.0\nsamples = 1\nvalue = 3.68", fillcolor="#f7d9c4"] ;
355 -> 357 ;
358 [label="total_bill <= 42.95\nsquared_error = 0.062\nsamples = 2\nvalue = 3.25", fillcolor="#f8e0ce"] ;
354 -> 358 ;
359 [label="squared_error = 0.0\nsamples = 1\nvalue = 3.0", fillcolor="#f9e3d3"] ;
358 -> 359 ;
360 [label="squared_error = 0.0\nsamples = 1\nvalue = 3.5", fillcolor="#f8dcc8"] ;
358 -> 360 ;
361 [label="squared_error = 0.0\nsamples = 1\nvalue = 5.0", fillcolor="#f3c7a7"] ;
317 -> 361 ;
362 [label="total_bill <= 48.3\nsquared_error = 1.872\nsamples = 3\nvalue = 8.577", fillcolor="#e99558"] ;
224 -> 362 ;
363 [label="squared_error = 0.0\nsamples = 1\nvalue = 6.73", fillcolor="#eeaf81"] ;
362 -> 363 ;
364 [label="total_bill <= 49.57\nsquared_error = 0.25\nsamples = 2\nvalue = 9.5", fillcolor="#e68844"] ;
362 -> 364 ;
365 [label="squared_error = 0.0\nsamples = 1\nvalue = 9.0", fillcolor="#e88f4f"] ;
364 -> 365 ;
366 [label="squared_error = 0.0\nsamples = 1\nvalue = 10.0", fillcolor="#e58139"] ;
364 -> 366 ;
}