digraph Tree {
node [shape=box, style="filled, rounded", color="black", fontname="helvetica"] ;
edge [fontname="helvetica"] ;
0 [label="fare <= 10.481\nentropy = 0.955\nsamples = 712\nvalue = [444, 268]", fillcolor="#f5cdb1"] ;
1 [label="age <= 32.5\nentropy = 0.723\nsamples = 274\nvalue = [219, 55]", fillcolor="#eca16b"] ;
0 -> 1 [labeldistance=2.5, labelangle=45, headlabel="True"] ;
2 [label="fare <= 7.883\nentropy = 0.787\nsamples = 221\nvalue = [169, 52]", fillcolor="#eda876"] ;
1 -> 2 ;
3 [label="fare <= 7.133\nentropy = 0.869\nsamples = 117\nvalue = [83, 34]", fillcolor="#f0b58a"] ;
2 -> 3 ;
4 [label="age <= 27.5\nentropy = 0.454\nsamples = 21\nvalue = [19, 2]", fillcolor="#e88e4e"] ;
3 -> 4 ;
5 [label="age <= 23.5\nentropy = 0.65\nsamples = 12\nvalue = [10, 2]", fillcolor="#ea9a61"] ;
4 -> 5 ;
6 [label="entropy = 0.0\nsamples = 8\nvalue = [8, 0]", fillcolor="#e58139"] ;
5 -> 6 ;
7 [label="fare <= 7.013\nentropy = 1.0\nsamples = 4\nvalue = [2, 2]", fillcolor="#ffffff"] ;
5 -> 7 ;
8 [label="entropy = 0.0\nsamples = 2\nvalue = [0, 2]", fillcolor="#399de5"] ;
7 -> 8 ;
9 [label="entropy = 0.0\nsamples = 2\nvalue = [2, 0]", fillcolor="#e58139"] ;
7 -> 9 ;
10 [label="entropy = 0.0\nsamples = 9\nvalue = [9, 0]", fillcolor="#e58139"] ;
4 -> 10 ;
11 [label="fare <= 7.867\nentropy = 0.918\nsamples = 96\nvalue = [64, 32]", fillcolor="#f2c09c"] ;
3 -> 11 ;
12 [label="age <= 13.5\nentropy = 0.903\nsamples = 94\nvalue = [64, 30]", fillcolor="#f1bc96"] ;
11 -> 12 ;
13 [label="entropy = 0.0\nsamples = 1\nvalue = [0, 1]", fillcolor="#399de5"] ;
12 -> 13 ;
14 [label="fare <= 7.183\nentropy = 0.895\nsamples = 93\nvalue = [64, 29]", fillcolor="#f1ba93"] ;
12 -> 14 ;
15 [label="entropy = 0.0\nsamples = 1\nvalue = [0, 1]", fillcolor="#399de5"] ;
14 -> 15 ;
16 [label="fare <= 7.404\nentropy = 0.887\nsamples = 92\nvalue = [64, 28]", fillcolor="#f0b890"] ;
14 -> 16 ;
17 [label="age <= 20.5\nentropy = 0.797\nsamples = 29\nvalue = [22, 7]", fillcolor="#eda978"] ;
16 -> 17 ;
18 [label="age <= 17.5\nentropy = 0.918\nsamples = 3\nvalue = [1, 2]", fillcolor="#9ccef2"] ;
17 -> 18 ;
19 [label="fare <= 7.227\nentropy = 1.0\nsamples = 2\nvalue = [1, 1]", fillcolor="#ffffff"] ;
18 -> 19 ;
20 [label="entropy = 0.0\nsamples = 1\nvalue = [0, 1]", fillcolor="#399de5"] ;
19 -> 20 ;
21 [label="entropy = 0.0\nsamples = 1\nvalue = [1, 0]", fillcolor="#e58139"] ;
19 -> 21 ;
22 [label="entropy = 0.0\nsamples = 1\nvalue = [0, 1]", fillcolor="#399de5"] ;
18 -> 22 ;
23 [label="age <= 28.25\nentropy = 0.706\nsamples = 26\nvalue = [21, 5]", fillcolor="#eb9f68"] ;
17 -> 23 ;
24 [label="fare <= 7.24\nentropy = 0.755\nsamples = 23\nvalue = [18, 5]", fillcolor="#eca470"] ;
23 -> 24 ;
25 [label="age <= 23.5\nentropy = 0.837\nsamples = 15\nvalue = [11, 4]", fillcolor="#eeaf81"] ;
24 -> 25 ;
26 [label="fare <= 7.227\nentropy = 1.0\nsamples = 2\nvalue = [1, 1]", fillcolor="#ffffff"] ;
25 -> 26 ;
27 [label="entropy = 0.0\nsamples = 1\nvalue = [0, 1]", fillcolor="#399de5"] ;
26 -> 27 ;
28 [label="entropy = 0.0\nsamples = 1\nvalue = [1, 0]", fillcolor="#e58139"] ;
26 -> 28 ;
29 [label="age <= 26.5\nentropy = 0.779\nsamples = 13\nvalue = [10, 3]", fillcolor="#eda774"] ;
25 -> 29 ;
30 [label="entropy = 0.0\nsamples = 1\nvalue = [1, 0]", fillcolor="#e58139"] ;
29 -> 30 ;
31 [label="fare <= 7.227\nentropy = 0.811\nsamples = 12\nvalue = [9, 3]", fillcolor="#eeab7b"] ;
29 -> 31 ;
32 [label="entropy = 0.722\nsamples = 5\nvalue = [4, 1]", fillcolor="#eca06a"] ;
31 -> 32 ;
33 [label="entropy = 0.863\nsamples = 7\nvalue = [5, 2]", fillcolor="#efb388"] ;
31 -> 33 ;
34 [label="age <= 25.0\nentropy = 0.544\nsamples = 8\nvalue = [7, 1]", fillcolor="#e99355"] ;
24 -> 34 ;
35 [label="age <= 21.5\nentropy = 0.722\nsamples = 5\nvalue = [4, 1]", fillcolor="#eca06a"] ;
34 -> 35 ;
36 [label="entropy = 0.0\nsamples = 1\nvalue = [1, 0]", fillcolor="#e58139"] ;
35 -> 36 ;
37 [label="entropy = 0.811\nsamples = 4\nvalue = [3, 1]", fillcolor="#eeab7b"] ;
35 -> 37 ;
38 [label="entropy = 0.0\nsamples = 3\nvalue = [3, 0]", fillcolor="#e58139"] ;
34 -> 38 ;
39 [label="entropy = 0.0\nsamples = 3\nvalue = [3, 0]", fillcolor="#e58139"] ;
23 -> 39 ;
40 [label="fare <= 7.508\nentropy = 0.918\nsamples = 63\nvalue = [42, 21]", fillcolor="#f2c09c"] ;
16 -> 40 ;
41 [label="entropy = 0.0\nsamples = 1\nvalue = [0, 1]", fillcolor="#399de5"] ;
40 -> 41 ;
42 [label="age <= 20.5\nentropy = 0.907\nsamples = 62\nvalue = [42, 20]", fillcolor="#f1bd97"] ;
40 -> 42 ;
43 [label="fare <= 7.742\nentropy = 0.439\nsamples = 11\nvalue = [10, 1]", fillcolor="#e88e4d"] ;
42 -> 43 ;
44 [label="age <= 17.5\nentropy = 1.0\nsamples = 2\nvalue = [1, 1]", fillcolor="#ffffff"] ;
43 -> 44 ;
45 [label="entropy = 0.0\nsamples = 1\nvalue = [0, 1]", fillcolor="#399de5"] ;
44 -> 45 ;
46 [label="entropy = 0.0\nsamples = 1\nvalue = [1, 0]", fillcolor="#e58139"] ;
44 -> 46 ;
47 [label="entropy = 0.0\nsamples = 9\nvalue = [9, 0]", fillcolor="#e58139"] ;
43 -> 47 ;
48 [label="fare <= 7.535\nentropy = 0.953\nsamples = 51\nvalue = [32, 19]", fillcolor="#f4ccaf"] ;
42 -> 48 ;
49 [label="entropy = 0.0\nsamples = 1\nvalue = [1, 0]", fillcolor="#e58139"] ;
48 -> 49 ;
50 [label="age <= 23.5\nentropy = 0.958\nsamples = 50\nvalue = [31, 19]", fillcolor="#f5ceb2"] ;
48 -> 50 ;
51 [label="fare <= 7.692\nentropy = 1.0\nsamples = 10\nvalue = [5, 5]", fillcolor="#ffffff"] ;
50 -> 51 ;
52 [label="entropy = 0.0\nsamples = 2\nvalue = [0, 2]", fillcolor="#399de5"] ;
51 -> 52 ;
53 [label="fare <= 7.798\nentropy = 0.954\nsamples = 8\nvalue = [5, 3]", fillcolor="#f5cdb0"] ;
51 -> 53 ;
54 [label="fare <= 7.742\nentropy = 1.0\nsamples = 6\nvalue = [3, 3]", fillcolor="#ffffff"] ;
53 -> 54 ;
55 [label="entropy = 0.0\nsamples = 1\nvalue = [1, 0]", fillcolor="#e58139"] ;
54 -> 55 ;
56 [label="age <= 21.5\nentropy = 0.971\nsamples = 5\nvalue = [2, 3]", fillcolor="#bddef6"] ;
54 -> 56 ;
57 [label="fare <= 7.773\nentropy = 1.0\nsamples = 2\nvalue = [1, 1]", fillcolor="#ffffff"] ;
56 -> 57 ;
58 [label="entropy = 0.0\nsamples = 1\nvalue = [1, 0]", fillcolor="#e58139"] ;
57 -> 58 ;
59 [label="entropy = 0.0\nsamples = 1\nvalue = [0, 1]", fillcolor="#399de5"] ;
57 -> 59 ;
60 [label="fare <= 7.785\nentropy = 0.918\nsamples = 3\nvalue = [1, 2]", fillcolor="#9ccef2"] ;
56 -> 60 ;
61 [label="entropy = 0.0\nsamples = 2\nvalue = [0, 2]", fillcolor="#399de5"] ;
60 -> 61 ;
62 [label="entropy = 0.0\nsamples = 1\nvalue = [1, 0]", fillcolor="#e58139"] ;
60 -> 62 ;
63 [label="entropy = 0.0\nsamples = 2\nvalue = [2, 0]", fillcolor="#e58139"] ;
53 -> 63 ;
64 [label="fare <= 7.729\nentropy = 0.934\nsamples = 40\nvalue = [26, 14]", fillcolor="#f3c5a4"] ;
50 -> 64 ;
65 [label="entropy = 0.0\nsamples = 4\nvalue = [4, 0]", fillcolor="#e58139"] ;
64 -> 65 ;
66 [label="fare <= 7.74\nentropy = 0.964\nsamples = 36\nvalue = [22, 14]", fillcolor="#f6d1b7"] ;
64 -> 66 ;
67 [label="fare <= 7.735\nentropy = 0.918\nsamples = 3\nvalue = [1, 2]", fillcolor="#9ccef2"] ;
66 -> 67 ;
68 [label="entropy = 1.0\nsamples = 2\nvalue = [1, 1]", fillcolor="#ffffff"] ;
67 -> 68 ;
69 [label="entropy = 0.0\nsamples = 1\nvalue = [0, 1]", fillcolor="#399de5"] ;
67 -> 69 ;
70 [label="fare <= 7.842\nentropy = 0.946\nsamples = 33\nvalue = [21, 12]", fillcolor="#f4c9aa"] ;
66 -> 70 ;
71 [label="age <= 30.0\nentropy = 0.918\nsamples = 30\nvalue = [20, 10]", fillcolor="#f2c09c"] ;
70 -> 71 ;
72 [label="age <= 28.5\nentropy = 0.951\nsamples = 27\nvalue = [17, 10]", fillcolor="#f4cbad"] ;
71 -> 72 ;
73 [label="fare <= 7.746\nentropy = 0.931\nsamples = 26\nvalue = [17, 9]", fillcolor="#f3c4a2"] ;
72 -> 73 ;
74 [label="entropy = 0.0\nsamples = 1\nvalue = [1, 0]", fillcolor="#e58139"] ;
73 -> 74 ;
75 [label="fare <= 7.812\nentropy = 0.943\nsamples = 25\nvalue = [16, 9]", fillcolor="#f4c8a8"] ;
73 -> 75 ;
76 [label="age <= 24.5\nentropy = 0.954\nsamples = 24\nvalue = [15, 9]", fillcolor="#f5cdb0"] ;
75 -> 76 ;
77 [label="entropy = 0.0\nsamples = 1\nvalue = [1, 0]", fillcolor="#e58139"] ;
76 -> 77 ;
78 [label="age <= 27.5\nentropy = 0.966\nsamples = 23\nvalue = [14, 9]", fillcolor="#f6d2b8"] ;
76 -> 78 ;
79 [label="age <= 26.5\nentropy = 1.0\nsamples = 4\nvalue = [2, 2]", fillcolor="#ffffff"] ;
78 -> 79 ;
80 [label="age <= 25.5\nentropy = 0.918\nsamples = 3\nvalue = [2, 1]", fillcolor="#f2c09c"] ;
79 -> 80 ;
81 [label="entropy = 1.0\nsamples = 2\nvalue = [1, 1]", fillcolor="#ffffff"] ;
80 -> 81 ;
82 [label="entropy = 0.0\nsamples = 1\nvalue = [1, 0]", fillcolor="#e58139"] ;
80 -> 82 ;
83 [label="entropy = 0.0\nsamples = 1\nvalue = [0, 1]", fillcolor="#399de5"] ;
79 -> 83 ;
84 [label="fare <= 7.785\nentropy = 0.949\nsamples = 19\nvalue = [12, 7]", fillcolor="#f4caac"] ;
78 -> 84 ;
85 [label="fare <= 7.763\nentropy = 0.964\nsamples = 18\nvalue = [11, 7]", fillcolor="#f6d1b7"] ;
84 -> 85 ;
86 [label="entropy = 0.954\nsamples = 16\nvalue = [10, 6]", fillcolor="#f5cdb0"] ;
85 -> 86 ;
87 [label="entropy = 1.0\nsamples = 2\nvalue = [1, 1]", fillcolor="#ffffff"] ;
85 -> 87 ;
88 [label="entropy = 0.0\nsamples = 1\nvalue = [1, 0]", fillcolor="#e58139"] ;
84 -> 88 ;
89 [label="entropy = 0.0\nsamples = 1\nvalue = [1, 0]", fillcolor="#e58139"] ;
75 -> 89 ;
90 [label="entropy = 0.0\nsamples = 1\nvalue = [0, 1]", fillcolor="#399de5"] ;
72 -> 90 ;
91 [label="entropy = 0.0\nsamples = 3\nvalue = [3, 0]", fillcolor="#e58139"] ;
71 -> 91 ;
92 [label="age <= 29.0\nentropy = 0.918\nsamples = 3\nvalue = [1, 2]", fillcolor="#9ccef2"] ;
70 -> 92 ;
93 [label="entropy = 1.0\nsamples = 2\nvalue = [1, 1]", fillcolor="#ffffff"] ;
92 -> 93 ;
94 [label="entropy = 0.0\nsamples = 1\nvalue = [0, 1]", fillcolor="#399de5"] ;
92 -> 94 ;
95 [label="entropy = 0.0\nsamples = 2\nvalue = [0, 2]", fillcolor="#399de5"] ;
11 -> 95 ;
96 [label="age <= 18.5\nentropy = 0.665\nsamples = 104\nvalue = [86, 18]", fillcolor="#ea9b62"] ;
2 -> 96 ;
97 [label="fare <= 8.04\nentropy = 0.985\nsamples = 14\nvalue = [8, 6]", fillcolor="#f8e0ce"] ;
96 -> 97 ;
98 [label="entropy = 0.0\nsamples = 2\nvalue = [0, 2]", fillcolor="#399de5"] ;
97 -> 98 ;
99 [label="age <= 1.21\nentropy = 0.918\nsamples = 12\nvalue = [8, 4]", fillcolor="#f2c09c"] ;
97 -> 99 ;
100 [label="entropy = 0.0\nsamples = 1\nvalue = [0, 1]", fillcolor="#399de5"] ;
99 -> 100 ;
101 [label="age <= 17.5\nentropy = 0.845\nsamples = 11\nvalue = [8, 3]", fillcolor="#efb083"] ;
99 -> 101 ;
102 [label="fare <= 8.356\nentropy = 0.544\nsamples = 8\nvalue = [7, 1]", fillcolor="#e99355"] ;
101 -> 102 ;
103 [label="entropy = 1.0\nsamples = 2\nvalue = [1, 1]", fillcolor="#ffffff"] ;
102 -> 103 ;
104 [label="entropy = 0.0\nsamples = 6\nvalue = [6, 0]", fillcolor="#e58139"] ;
102 -> 104 ;
105 [label="fare <= 8.825\nentropy = 0.918\nsamples = 3\nvalue = [1, 2]", fillcolor="#9ccef2"] ;
101 -> 105 ;
106 [label="entropy = 0.0\nsamples = 1\nvalue = [1, 0]", fillcolor="#e58139"] ;
105 -> 106 ;
107 [label="entropy = 0.0\nsamples = 2\nvalue = [0, 2]", fillcolor="#399de5"] ;
105 -> 107 ;
108 [label="age <= 30.5\nentropy = 0.567\nsamples = 90\nvalue = [78, 12]", fillcolor="#e99457"] ;
96 -> 108 ;
109 [label="fare <= 7.91\nentropy = 0.461\nsamples = 82\nvalue = [74, 8]", fillcolor="#e88f4e"] ;
108 -> 109 ;
110 [label="age <= 28.5\nentropy = 0.235\nsamples = 26\nvalue = [25, 1]", fillcolor="#e68641"] ;
109 -> 110 ;
111 [label="entropy = 0.0\nsamples = 24\nvalue = [24, 0]", fillcolor="#e58139"] ;
110 -> 111 ;
112 [label="age <= 29.5\nentropy = 1.0\nsamples = 2\nvalue = [1, 1]", fillcolor="#ffffff"] ;
110 -> 112 ;
113 [label="entropy = 0.0\nsamples = 1\nvalue = [0, 1]", fillcolor="#399de5"] ;
112 -> 113 ;
114 [label="entropy = 0.0\nsamples = 1\nvalue = [1, 0]", fillcolor="#e58139"] ;
112 -> 114 ;
115 [label="fare <= 7.988\nentropy = 0.544\nsamples = 56\nvalue = [49, 7]", fillcolor="#e99355"] ;
109 -> 115 ;
116 [label="age <= 20.5\nentropy = 0.954\nsamples = 8\nvalue = [5, 3]", fillcolor="#f5cdb0"] ;
115 -> 116 ;
117 [label="entropy = 0.0\nsamples = 1\nvalue = [0, 1]", fillcolor="#399de5"] ;
116 -> 117 ;
118 [label="age <= 25.5\nentropy = 0.863\nsamples = 7\nvalue = [5, 2]", fillcolor="#efb388"] ;
116 -> 118 ;
119 [label="entropy = 0.0\nsamples = 4\nvalue = [4, 0]", fillcolor="#e58139"] ;
118 -> 119 ;
120 [label="age <= 27.5\nentropy = 0.918\nsamples = 3\nvalue = [1, 2]", fillcolor="#9ccef2"] ;
118 -> 120 ;
121 [label="entropy = 0.0\nsamples = 2\nvalue = [0, 2]", fillcolor="#399de5"] ;
120 -> 121 ;
122 [label="entropy = 0.0\nsamples = 1\nvalue = [1, 0]", fillcolor="#e58139"] ;
120 -> 122 ;
123 [label="age <= 19.5\nentropy = 0.414\nsamples = 48\nvalue = [44, 4]", fillcolor="#e78c4b"] ;
115 -> 123 ;
124 [label="fare <= 9.11\nentropy = 0.918\nsamples = 3\nvalue = [2, 1]", fillcolor="#f2c09c"] ;
123 -> 124 ;
125 [label="entropy = 1.0\nsamples = 2\nvalue = [1, 1]", fillcolor="#ffffff"] ;
124 -> 125 ;
126 [label="entropy = 0.0\nsamples = 1\nvalue = [1, 0]", fillcolor="#e58139"] ;
124 -> 126 ;
127 [label="fare <= 8.081\nentropy = 0.353\nsamples = 45\nvalue = [42, 3]", fillcolor="#e78a47"] ;
123 -> 127 ;
128 [label="entropy = 0.0\nsamples = 22\nvalue = [22, 0]", fillcolor="#e58139"] ;
127 -> 128 ;
129 [label="age <= 26.5\nentropy = 0.559\nsamples = 23\nvalue = [20, 3]", fillcolor="#e99457"] ;
127 -> 129 ;
130 [label="entropy = 0.0\nsamples = 12\nvalue = [12, 0]", fillcolor="#e58139"] ;
129 -> 130 ;
131 [label="fare <= 8.125\nentropy = 0.845\nsamples = 11\nvalue = [8, 3]", fillcolor="#efb083"] ;
129 -> 131 ;
132 [label="entropy = 0.0\nsamples = 1\nvalue = [0, 1]", fillcolor="#399de5"] ;
131 -> 132 ;
133 [label="age <= 27.5\nentropy = 0.722\nsamples = 10\nvalue = [8, 2]", fillcolor="#eca06a"] ;
131 -> 133 ;
134 [label="entropy = 0.0\nsamples = 1\nvalue = [0, 1]", fillcolor="#399de5"] ;
133 -> 134 ;
135 [label="age <= 28.5\nentropy = 0.503\nsamples = 9\nvalue = [8, 1]", fillcolor="#e89152"] ;
133 -> 135 ;
136 [label="entropy = 0.0\nsamples = 5\nvalue = [5, 0]", fillcolor="#e58139"] ;
135 -> 136 ;
137 [label="fare <= 9.492\nentropy = 0.811\nsamples = 4\nvalue = [3, 1]", fillcolor="#eeab7b"] ;
135 -> 137 ;
138 [label="entropy = 0.0\nsamples = 2\nvalue = [2, 0]", fillcolor="#e58139"] ;
137 -> 138 ;
139 [label="fare <= 9.981\nentropy = 1.0\nsamples = 2\nvalue = [1, 1]", fillcolor="#ffffff"] ;
137 -> 139 ;
140 [label="entropy = 0.0\nsamples = 1\nvalue = [0, 1]", fillcolor="#399de5"] ;
139 -> 140 ;
141 [label="entropy = 0.0\nsamples = 1\nvalue = [1, 0]", fillcolor="#e58139"] ;
139 -> 141 ;
142 [label="age <= 31.5\nentropy = 1.0\nsamples = 8\nvalue = [4, 4]", fillcolor="#ffffff"] ;
108 -> 142 ;
143 [label="entropy = 0.0\nsamples = 2\nvalue = [0, 2]", fillcolor="#399de5"] ;
142 -> 143 ;
144 [label="fare <= 7.91\nentropy = 0.918\nsamples = 6\nvalue = [4, 2]", fillcolor="#f2c09c"] ;
142 -> 144 ;
145 [label="entropy = 0.0\nsamples = 1\nvalue = [1, 0]", fillcolor="#e58139"] ;
144 -> 145 ;
146 [label="fare <= 8.206\nentropy = 0.971\nsamples = 5\nvalue = [3, 2]", fillcolor="#f6d5bd"] ;
144 -> 146 ;
147 [label="fare <= 7.988\nentropy = 1.0\nsamples = 4\nvalue = [2, 2]", fillcolor="#ffffff"] ;
146 -> 147 ;
148 [label="entropy = 0.918\nsamples = 3\nvalue = [2, 1]", fillcolor="#f2c09c"] ;
147 -> 148 ;
149 [label="entropy = 0.0\nsamples = 1\nvalue = [0, 1]", fillcolor="#399de5"] ;
147 -> 149 ;
150 [label="entropy = 0.0\nsamples = 1\nvalue = [1, 0]", fillcolor="#e58139"] ;
146 -> 150 ;
151 [label="fare <= 7.91\nentropy = 0.314\nsamples = 53\nvalue = [50, 3]", fillcolor="#e78945"] ;
1 -> 151 ;
152 [label="entropy = 0.0\nsamples = 31\nvalue = [31, 0]", fillcolor="#e58139"] ;
151 -> 152 ;
153 [label="age <= 59.25\nentropy = 0.575\nsamples = 22\nvalue = [19, 3]", fillcolor="#e99558"] ;
151 -> 153 ;
154 [label="fare <= 7.988\nentropy = 0.454\nsamples = 21\nvalue = [19, 2]", fillcolor="#e88e4e"] ;
153 -> 154 ;
155 [label="age <= 38.0\nentropy = 1.0\nsamples = 4\nvalue = [2, 2]", fillcolor="#ffffff"] ;
154 -> 155 ;
156 [label="entropy = 0.0\nsamples = 1\nvalue = [1, 0]", fillcolor="#e58139"] ;
155 -> 156 ;
157 [label="age <= 41.5\nentropy = 0.918\nsamples = 3\nvalue = [1, 2]", fillcolor="#9ccef2"] ;
155 -> 157 ;
158 [label="entropy = 1.0\nsamples = 2\nvalue = [1, 1]", fillcolor="#ffffff"] ;
157 -> 158 ;
159 [label="entropy = 0.0\nsamples = 1\nvalue = [0, 1]", fillcolor="#399de5"] ;
157 -> 159 ;
160 [label="entropy = 0.0\nsamples = 17\nvalue = [17, 0]", fillcolor="#e58139"] ;
154 -> 160 ;
161 [label="entropy = 0.0\nsamples = 1\nvalue = [0, 1]", fillcolor="#399de5"] ;
153 -> 161 ;
162 [label="fare <= 52.277\nentropy = 0.999\nsamples = 438\nvalue = [225.0, 213.0]", fillcolor="#fef8f4"] ;
0 -> 162 [labeldistance=2.5, labelangle=-45, headlabel="False"] ;
163 [label="age <= 5.5\nentropy = 0.978\nsamples = 318\nvalue = [187, 131]", fillcolor="#f7d9c4"] ;
162 -> 163 ;
164 [label="fare <= 20.825\nentropy = 0.874\nsamples = 34\nvalue = [10, 24]", fillcolor="#8bc6f0"] ;
163 -> 164 ;
165 [label="entropy = 0.0\nsamples = 12\nvalue = [0, 12]", fillcolor="#399de5"] ;
164 -> 165 ;
166 [label="fare <= 21.55\nentropy = 0.994\nsamples = 22\nvalue = [10, 12]", fillcolor="#deeffb"] ;
164 -> 166 ;
167 [label="entropy = 0.0\nsamples = 2\nvalue = [2, 0]", fillcolor="#e58139"] ;
166 -> 167 ;
168 [label="fare <= 27.825\nentropy = 0.971\nsamples = 20\nvalue = [8, 12]", fillcolor="#bddef6"] ;
166 -> 168 ;
169 [label="entropy = 0.0\nsamples = 6\nvalue = [0, 6]", fillcolor="#399de5"] ;
168 -> 169 ;
170 [label="fare <= 31.331\nentropy = 0.985\nsamples = 14\nvalue = [8, 6]", fillcolor="#f8e0ce"] ;
168 -> 170 ;
171 [label="entropy = 0.0\nsamples = 5\nvalue = [5, 0]", fillcolor="#e58139"] ;
170 -> 171 ;
172 [label="fare <= 39.344\nentropy = 0.918\nsamples = 9\nvalue = [3, 6]", fillcolor="#9ccef2"] ;
170 -> 172 ;
173 [label="entropy = 0.0\nsamples = 5\nvalue = [0, 5]", fillcolor="#399de5"] ;
172 -> 173 ;
174 [label="age <= 2.5\nentropy = 0.811\nsamples = 4\nvalue = [3, 1]", fillcolor="#eeab7b"] ;
172 -> 174 ;
175 [label="entropy = 0.0\nsamples = 3\nvalue = [3, 0]", fillcolor="#e58139"] ;
174 -> 175 ;
176 [label="entropy = 0.0\nsamples = 1\nvalue = [0, 1]", fillcolor="#399de5"] ;
174 -> 176 ;
177 [label="fare <= 30.75\nentropy = 0.956\nsamples = 284\nvalue = [177.0, 107.0]", fillcolor="#f5cdb1"] ;
163 -> 177 ;
178 [label="fare <= 29.85\nentropy = 0.976\nsamples = 240\nvalue = [142, 98]", fillcolor="#f7d8c2"] ;
177 -> 178 ;
179 [label="fare <= 27.825\nentropy = 0.965\nsamples = 228\nvalue = [139, 89]", fillcolor="#f6d2b8"] ;
178 -> 179 ;
180 [label="age <= 7.5\nentropy = 0.972\nsamples = 219\nvalue = [131, 88]", fillcolor="#f6d6be"] ;
179 -> 180 ;
181 [label="entropy = 0.0\nsamples = 2\nvalue = [0, 2]", fillcolor="#399de5"] ;
180 -> 181 ;
182 [label="age <= 58.5\nentropy = 0.969\nsamples = 217\nvalue = [131, 86]", fillcolor="#f6d4bb"] ;
180 -> 182 ;
183 [label="fare <= 25.758\nentropy = 0.974\nsamples = 210\nvalue = [125, 85]", fillcolor="#f7d7c0"] ;
182 -> 183 ;
184 [label="fare <= 24.075\nentropy = 0.954\nsamples = 163\nvalue = [102.0, 61.0]", fillcolor="#f5ccaf"] ;
183 -> 184 ;
185 [label="fare <= 22.019\nentropy = 0.972\nsamples = 152\nvalue = [91.0, 61.0]", fillcolor="#f6d5be"] ;
184 -> 185 ;
186 [label="fare <= 20.55\nentropy = 0.957\nsamples = 140\nvalue = [87, 53]", fillcolor="#f5ceb2"] ;
185 -> 186 ;
187 [label="age <= 23.5\nentropy = 0.969\nsamples = 131\nvalue = [79, 52]", fillcolor="#f6d4bb"] ;
186 -> 187 ;
188 [label="fare <= 16.0\nentropy = 0.811\nsamples = 28\nvalue = [21, 7]", fillcolor="#eeab7b"] ;
187 -> 188 ;
189 [label="fare <= 15.394\nentropy = 0.887\nsamples = 23\nvalue = [16, 7]", fillcolor="#f0b890"] ;
188 -> 189 ;
190 [label="fare <= 14.123\nentropy = 0.792\nsamples = 21\nvalue = [16, 5]", fillcolor="#eda877"] ;
189 -> 190 ;
191 [label="fare <= 13.396\nentropy = 0.896\nsamples = 16\nvalue = [11, 5]", fillcolor="#f1ba93"] ;
190 -> 191 ;
192 [label="fare <= 12.5\nentropy = 0.837\nsamples = 15\nvalue = [11, 4]", fillcolor="#eeaf81"] ;
191 -> 192 ;
193 [label="age <= 14.0\nentropy = 0.971\nsamples = 10\nvalue = [6, 4]", fillcolor="#f6d5bd"] ;
192 -> 193 ;
194 [label="entropy = 0.0\nsamples = 1\nvalue = [0, 1]", fillcolor="#399de5"] ;
193 -> 194 ;
195 [label="fare <= 11.75\nentropy = 0.918\nsamples = 9\nvalue = [6, 3]", fillcolor="#f2c09c"] ;
193 -> 195 ;
196 [label="fare <= 10.508\nentropy = 0.811\nsamples = 8\nvalue = [6, 2]", fillcolor="#eeab7b"] ;
195 -> 196 ;
197 [label="age <= 17.5\nentropy = 1.0\nsamples = 4\nvalue = [2, 2]", fillcolor="#ffffff"] ;
196 -> 197 ;
198 [label="entropy = 0.0\nsamples = 1\nvalue = [1, 0]", fillcolor="#e58139"] ;
197 -> 198 ;
199 [label="age <= 20.0\nentropy = 0.918\nsamples = 3\nvalue = [1, 2]", fillcolor="#9ccef2"] ;
197 -> 199 ;
200 [label="entropy = 1.0\nsamples = 2\nvalue = [1, 1]", fillcolor="#ffffff"] ;
199 -> 200 ;
201 [label="entropy = 0.0\nsamples = 1\nvalue = [0, 1]", fillcolor="#399de5"] ;
199 -> 201 ;
202 [label="entropy = 0.0\nsamples = 4\nvalue = [4, 0]", fillcolor="#e58139"] ;
196 -> 202 ;
203 [label="entropy = 0.0\nsamples = 1\nvalue = [0, 1]", fillcolor="#399de5"] ;
195 -> 203 ;
204 [label="entropy = 0.0\nsamples = 5\nvalue = [5, 0]", fillcolor="#e58139"] ;
192 -> 204 ;
205 [label="entropy = 0.0\nsamples = 1\nvalue = [0, 1]", fillcolor="#399de5"] ;
191 -> 205 ;
206 [label="entropy = 0.0\nsamples = 5\nvalue = [5, 0]", fillcolor="#e58139"] ;
190 -> 206 ;
207 [label="entropy = 0.0\nsamples = 2\nvalue = [0, 2]", fillcolor="#399de5"] ;
189 -> 207 ;
208 [label="entropy = 0.0\nsamples = 5\nvalue = [5, 0]", fillcolor="#e58139"] ;
188 -> 208 ;
209 [label="fare <= 18.375\nentropy = 0.988\nsamples = 103\nvalue = [58, 45]", fillcolor="#f9e3d3"] ;
187 -> 209 ;
210 [label="fare <= 13.931\nentropy = 0.979\nsamples = 94\nvalue = [55, 39]", fillcolor="#f7dac5"] ;
209 -> 210 ;
211 [label="age <= 50.5\nentropy = 1.0\nsamples = 53\nvalue = [27, 26]", fillcolor="#fefaf8"] ;
210 -> 211 ;
212 [label="age <= 26.5\nentropy = 0.997\nsamples = 49\nvalue = [23, 26]", fillcolor="#e8f4fc"] ;
211 -> 212 ;
213 [label="age <= 24.5\nentropy = 0.544\nsamples = 8\nvalue = [7, 1]", fillcolor="#e99355"] ;
212 -> 213 ;
214 [label="fare <= 11.75\nentropy = 0.811\nsamples = 4\nvalue = [3, 1]", fillcolor="#eeab7b"] ;
213 -> 214 ;
215 [label="entropy = 0.0\nsamples = 1\nvalue = [1, 0]", fillcolor="#e58139"] ;
214 -> 215 ;
216 [label="entropy = 0.918\nsamples = 3\nvalue = [2, 1]", fillcolor="#f2c09c"] ;
214 -> 216 ;
217 [label="entropy = 0.0\nsamples = 4\nvalue = [4, 0]", fillcolor="#e58139"] ;
213 -> 217 ;
218 [label="age <= 28.5\nentropy = 0.965\nsamples = 41\nvalue = [16, 25]", fillcolor="#b8dcf6"] ;
212 -> 218 ;
219 [label="fare <= 13.679\nentropy = 0.779\nsamples = 13\nvalue = [3, 10]", fillcolor="#74baed"] ;
218 -> 219 ;
220 [label="fare <= 13.25\nentropy = 0.845\nsamples = 11\nvalue = [3, 8]", fillcolor="#83c2ef"] ;
219 -> 220 ;
221 [label="fare <= 10.817\nentropy = 0.722\nsamples = 10\nvalue = [2, 8]", fillcolor="#6ab6ec"] ;
220 -> 221 ;
222 [label="age <= 27.5\nentropy = 1.0\nsamples = 2\nvalue = [1, 1]", fillcolor="#ffffff"] ;
221 -> 222 ;
223 [label="entropy = 0.0\nsamples = 1\nvalue = [0, 1]", fillcolor="#399de5"] ;
222 -> 223 ;
224 [label="entropy = 0.0\nsamples = 1\nvalue = [1, 0]", fillcolor="#e58139"] ;
222 -> 224 ;
225 [label="age <= 27.5\nentropy = 0.544\nsamples = 8\nvalue = [1, 7]", fillcolor="#55abe9"] ;
221 -> 225 ;
226 [label="fare <= 12.738\nentropy = 0.918\nsamples = 3\nvalue = [1, 2]", fillcolor="#9ccef2"] ;
225 -> 226 ;
227 [label="entropy = 0.0\nsamples = 2\nvalue = [0, 2]", fillcolor="#399de5"] ;
226 -> 227 ;
228 [label="entropy = 0.0\nsamples = 1\nvalue = [1, 0]", fillcolor="#e58139"] ;
226 -> 228 ;
229 [label="entropy = 0.0\nsamples = 5\nvalue = [0, 5]", fillcolor="#399de5"] ;
225 -> 229 ;
230 [label="entropy = 0.0\nsamples = 1\nvalue = [1, 0]", fillcolor="#e58139"] ;
220 -> 230 ;
231 [label="entropy = 0.0\nsamples = 2\nvalue = [0, 2]", fillcolor="#399de5"] ;
219 -> 231 ;
232 [label="age <= 29.5\nentropy = 0.996\nsamples = 28\nvalue = [13, 15]", fillcolor="#e5f2fc"] ;
218 -> 232 ;
233 [label="entropy = 0.0\nsamples = 1\nvalue = [1, 0]", fillcolor="#e58139"] ;
232 -> 233 ;
234 [label="fare <= 13.25\nentropy = 0.991\nsamples = 27\nvalue = [12, 15]", fillcolor="#d7ebfa"] ;
232 -> 234 ;
235 [label="fare <= 12.312\nentropy = 0.996\nsamples = 26\nvalue = [12, 14]", fillcolor="#e3f1fb"] ;
234 -> 235 ;
236 [label="age <= 43.0\nentropy = 0.985\nsamples = 7\nvalue = [4, 3]", fillcolor="#f8e0ce"] ;
235 -> 236 ;
237 [label="age <= 33.5\nentropy = 0.722\nsamples = 5\nvalue = [4, 1]", fillcolor="#eca06a"] ;
236 -> 237 ;
238 [label="entropy = 0.0\nsamples = 2\nvalue = [2, 0]", fillcolor="#e58139"] ;
237 -> 238 ;
239 [label="age <= 34.5\nentropy = 0.918\nsamples = 3\nvalue = [2, 1]", fillcolor="#f2c09c"] ;
237 -> 239 ;
240 [label="entropy = 0.0\nsamples = 1\nvalue = [0, 1]", fillcolor="#399de5"] ;
239 -> 240 ;
241 [label="entropy = 0.0\nsamples = 2\nvalue = [2, 0]", fillcolor="#e58139"] ;
239 -> 241 ;
242 [label="entropy = 0.0\nsamples = 2\nvalue = [0, 2]", fillcolor="#399de5"] ;
236 -> 242 ;
243 [label="age <= 45.0\nentropy = 0.982\nsamples = 19\nvalue = [8, 11]", fillcolor="#c9e4f8"] ;
235 -> 243 ;
244 [label="fare <= 12.738\nentropy = 0.937\nsamples = 17\nvalue = [6, 11]", fillcolor="#a5d2f3"] ;
243 -> 244 ;
245 [label="entropy = 0.0\nsamples = 2\nvalue = [0, 2]", fillcolor="#399de5"] ;
244 -> 245 ;
246 [label="age <= 31.0\nentropy = 0.971\nsamples = 15\nvalue = [6, 9]", fillcolor="#bddef6"] ;
244 -> 246 ;
247 [label="entropy = 0.918\nsamples = 3\nvalue = [2, 1]", fillcolor="#f2c09c"] ;
246 -> 247 ;
248 [label="age <= 33.25\nentropy = 0.918\nsamples = 12\nvalue = [4, 8]", fillcolor="#9ccef2"] ;
246 -> 248 ;
249 [label="entropy = 0.0\nsamples = 2\nvalue = [0, 2]", fillcolor="#399de5"] ;
248 -> 249 ;
250 [label="age <= 39.5\nentropy = 0.971\nsamples = 10\nvalue = [4, 6]", fillcolor="#bddef6"] ;
248 -> 250 ;
251 [label="age <= 37.5\nentropy = 1.0\nsamples = 6\nvalue = [3, 3]", fillcolor="#ffffff"] ;
250 -> 251 ;
252 [label="age <= 35.0\nentropy = 0.971\nsamples = 5\nvalue = [2, 3]", fillcolor="#bddef6"] ;
251 -> 252 ;
253 [label="entropy = 1.0\nsamples = 4\nvalue = [2, 2]", fillcolor="#ffffff"] ;
252 -> 253 ;
254 [label="entropy = 0.0\nsamples = 1\nvalue = [0, 1]", fillcolor="#399de5"] ;
252 -> 254 ;
255 [label="entropy = 0.0\nsamples = 1\nvalue = [1, 0]", fillcolor="#e58139"] ;
251 -> 255 ;
256 [label="age <= 41.0\nentropy = 0.811\nsamples = 4\nvalue = [1, 3]", fillcolor="#7bbeee"] ;
250 -> 256 ;
257 [label="entropy = 0.0\nsamples = 1\nvalue = [0, 1]", fillcolor="#399de5"] ;
256 -> 257 ;
258 [label="entropy = 0.918\nsamples = 3\nvalue = [1, 2]", fillcolor="#9ccef2"] ;
256 -> 258 ;
259 [label="entropy = 0.0\nsamples = 2\nvalue = [2, 0]", fillcolor="#e58139"] ;
243 -> 259 ;
260 [label="entropy = 0.0\nsamples = 1\nvalue = [0, 1]", fillcolor="#399de5"] ;
234 -> 260 ;
261 [label="entropy = 0.0\nsamples = 4\nvalue = [4, 0]", fillcolor="#e58139"] ;
211 -> 261 ;
262 [label="fare <= 15.173\nentropy = 0.901\nsamples = 41\nvalue = [28.0, 13.0]", fillcolor="#f1bc95"] ;
210 -> 262 ;
263 [label="age <= 25.0\nentropy = 0.371\nsamples = 14\nvalue = [13, 1]", fillcolor="#e78b48"] ;
262 -> 263 ;
264 [label="entropy = 0.0\nsamples = 1\nvalue = [0, 1]", fillcolor="#399de5"] ;
263 -> 264 ;
265 [label="entropy = 0.0\nsamples = 13\nvalue = [13, 0]", fillcolor="#e58139"] ;
263 -> 265 ;
266 [label="fare <= 17.6\nentropy = 0.991\nsamples = 27\nvalue = [15, 12]", fillcolor="#fae6d7"] ;
262 -> 266 ;
267 [label="fare <= 16.4\nentropy = 0.999\nsamples = 25\nvalue = [13, 12]", fillcolor="#fdf5f0"] ;
266 -> 267 ;
268 [label="fare <= 16.05\nentropy = 0.988\nsamples = 23\nvalue = [13.0, 10.0]", fillcolor="#f9e2d1"] ;
267 -> 268 ;
269 [label="fare <= 15.925\nentropy = 0.997\nsamples = 15\nvalue = [7, 8]", fillcolor="#e6f3fc"] ;
268 -> 269 ;
270 [label="age <= 26.0\nentropy = 1.0\nsamples = 14\nvalue = [7, 7]", fillcolor="#ffffff"] ;
269 -> 270 ;
271 [label="entropy = 0.0\nsamples = 1\nvalue = [0, 1]", fillcolor="#399de5"] ;
270 -> 271 ;
272 [label="age <= 32.5\nentropy = 0.996\nsamples = 13\nvalue = [7, 6]", fillcolor="#fbede3"] ;
270 -> 272 ;
273 [label="fare <= 15.675\nentropy = 0.971\nsamples = 10\nvalue = [6, 4]", fillcolor="#f6d5bd"] ;
272 -> 273 ;
274 [label="age <= 28.5\nentropy = 1.0\nsamples = 8\nvalue = [4, 4]", fillcolor="#ffffff"] ;
273 -> 274 ;
275 [label="fare <= 15.373\nentropy = 0.985\nsamples = 7\nvalue = [4, 3]", fillcolor="#f8e0ce"] ;
274 -> 275 ;
276 [label="entropy = 0.0\nsamples = 1\nvalue = [1, 0]", fillcolor="#e58139"] ;
275 -> 276 ;
277 [label="entropy = 1.0\nsamples = 6\nvalue = [3, 3]", fillcolor="#ffffff"] ;
275 -> 277 ;
278 [label="entropy = 0.0\nsamples = 1\nvalue = [0, 1]", fillcolor="#399de5"] ;
274 -> 278 ;
279 [label="entropy = 0.0\nsamples = 2\nvalue = [2, 0]", fillcolor="#e58139"] ;
273 -> 279 ;
280 [label="fare <= 15.625\nentropy = 0.918\nsamples = 3\nvalue = [1, 2]", fillcolor="#9ccef2"] ;
272 -> 280 ;
281 [label="entropy = 0.0\nsamples = 1\nvalue = [1, 0]", fillcolor="#e58139"] ;
280 -> 281 ;
282 [label="entropy = 0.0\nsamples = 2\nvalue = [0, 2]", fillcolor="#399de5"] ;
280 -> 282 ;
283 [label="entropy = 0.0\nsamples = 1\nvalue = [0, 1]", fillcolor="#399de5"] ;
269 -> 283 ;
284 [label="age <= 28.25\nentropy = 0.811\nsamples = 8\nvalue = [6, 2]", fillcolor="#eeab7b"] ;
268 -> 284 ;
285 [label="age <= 27.0\nentropy = 0.971\nsamples = 5\nvalue = [3, 2]", fillcolor="#f6d5bd"] ;
284 -> 285 ;
286 [label="entropy = 0.0\nsamples = 2\nvalue = [2, 0]", fillcolor="#e58139"] ;
285 -> 286 ;
287 [label="entropy = 0.918\nsamples = 3\nvalue = [1, 2]", fillcolor="#9ccef2"] ;
285 -> 287 ;
288 [label="entropy = 0.0\nsamples = 3\nvalue = [3, 0]", fillcolor="#e58139"] ;
284 -> 288 ;
289 [label="entropy = 0.0\nsamples = 2\nvalue = [0, 2]", fillcolor="#399de5"] ;
267 -> 289 ;
290 [label="entropy = 0.0\nsamples = 2\nvalue = [2, 0]", fillcolor="#e58139"] ;
266 -> 290 ;
291 [label="fare <= 19.733\nentropy = 0.918\nsamples = 9\nvalue = [3, 6]", fillcolor="#9ccef2"] ;
209 -> 291 ;
292 [label="entropy = 0.0\nsamples = 4\nvalue = [0, 4]", fillcolor="#399de5"] ;
291 -> 292 ;
293 [label="fare <= 20.108\nentropy = 0.971\nsamples = 5\nvalue = [3, 2]", fillcolor="#f6d5bd"] ;
291 -> 293 ;
294 [label="entropy = 0.0\nsamples = 2\nvalue = [2, 0]", fillcolor="#e58139"] ;
293 -> 294 ;
295 [label="age <= 32.0\nentropy = 0.918\nsamples = 3\nvalue = [1, 2]", fillcolor="#9ccef2"] ;
293 -> 295 ;
296 [label="entropy = 0.0\nsamples = 1\nvalue = [0, 1]", fillcolor="#399de5"] ;
295 -> 296 ;
297 [label="fare <= 20.387\nentropy = 1.0\nsamples = 2\nvalue = [1, 1]", fillcolor="#ffffff"] ;
295 -> 297 ;
298 [label="entropy = 0.0\nsamples = 1\nvalue = [0, 1]", fillcolor="#399de5"] ;
297 -> 298 ;
299 [label="entropy = 0.0\nsamples = 1\nvalue = [1, 0]", fillcolor="#e58139"] ;
297 -> 299 ;
300 [label="age <= 29.5\nentropy = 0.503\nsamples = 9\nvalue = [8, 1]", fillcolor="#e89152"] ;
186 -> 300 ;
301 [label="entropy = 0.0\nsamples = 6\nvalue = [6, 0]", fillcolor="#e58139"] ;
300 -> 301 ;
302 [label="age <= 32.0\nentropy = 0.918\nsamples = 3\nvalue = [2, 1]", fillcolor="#f2c09c"] ;
300 -> 302 ;
303 [label="entropy = 0.0\nsamples = 1\nvalue = [0, 1]", fillcolor="#399de5"] ;
302 -> 303 ;
304 [label="entropy = 0.0\nsamples = 2\nvalue = [2, 0]", fillcolor="#e58139"] ;
302 -> 304 ;
305 [label="fare <= 23.35\nentropy = 0.918\nsamples = 12\nvalue = [4, 8]", fillcolor="#9ccef2"] ;
185 -> 305 ;
306 [label="fare <= 22.762\nentropy = 0.544\nsamples = 8\nvalue = [1, 7]", fillcolor="#55abe9"] ;
305 -> 306 ;
307 [label="fare <= 22.442\nentropy = 0.918\nsamples = 3\nvalue = [1, 2]", fillcolor="#9ccef2"] ;
306 -> 307 ;
308 [label="entropy = 0.0\nsamples = 2\nvalue = [0, 2]", fillcolor="#399de5"] ;
307 -> 308 ;
309 [label="entropy = 0.0\nsamples = 1\nvalue = [1, 0]", fillcolor="#e58139"] ;
307 -> 309 ;
310 [label="entropy = 0.0\nsamples = 5\nvalue = [0, 5]", fillcolor="#399de5"] ;
306 -> 310 ;
311 [label="fare <= 23.725\nentropy = 0.811\nsamples = 4\nvalue = [3, 1]", fillcolor="#eeab7b"] ;
305 -> 311 ;
312 [label="entropy = 0.0\nsamples = 2\nvalue = [2, 0]", fillcolor="#e58139"] ;
311 -> 312 ;
313 [label="age <= 29.0\nentropy = 1.0\nsamples = 2\nvalue = [1, 1]", fillcolor="#ffffff"] ;
311 -> 313 ;
314 [label="entropy = 0.0\nsamples = 1\nvalue = [0, 1]", fillcolor="#399de5"] ;
313 -> 314 ;
315 [label="entropy = 0.0\nsamples = 1\nvalue = [1, 0]", fillcolor="#e58139"] ;
313 -> 315 ;
316 [label="entropy = 0.0\nsamples = 11\nvalue = [11, 0]", fillcolor="#e58139"] ;
184 -> 316 ;
317 [label="age <= 24.5\nentropy = 1.0\nsamples = 47\nvalue = [23.0, 24.0]", fillcolor="#f7fbfe"] ;
183 -> 317 ;
318 [label="age <= 17.5\nentropy = 0.65\nsamples = 6\nvalue = [1, 5]", fillcolor="#61b1ea"] ;
317 -> 318 ;
319 [label="fare <= 26.125\nentropy = 1.0\nsamples = 2\nvalue = [1, 1]", fillcolor="#ffffff"] ;
318 -> 319 ;
320 [label="entropy = 0.0\nsamples = 1\nvalue = [1, 0]", fillcolor="#e58139"] ;
319 -> 320 ;
321 [label="entropy = 0.0\nsamples = 1\nvalue = [0, 1]", fillcolor="#399de5"] ;
319 -> 321 ;
322 [label="entropy = 0.0\nsamples = 4\nvalue = [0, 4]", fillcolor="#399de5"] ;
318 -> 322 ;
323 [label="fare <= 26.775\nentropy = 0.996\nsamples = 41\nvalue = [22, 19]", fillcolor="#fbeee4"] ;
317 -> 323 ;
324 [label="fare <= 26.269\nentropy = 0.999\nsamples = 33\nvalue = [16, 17]", fillcolor="#f3f9fd"] ;
323 -> 324 ;
325 [label="age <= 52.0\nentropy = 0.988\nsamples = 23\nvalue = [13.0, 10.0]", fillcolor="#f9e2d1"] ;
324 -> 325 ;
326 [label="age <= 47.0\nentropy = 0.998\nsamples = 21\nvalue = [11, 10]", fillcolor="#fdf4ed"] ;
325 -> 326 ;
327 [label="age <= 33.5\nentropy = 0.982\nsamples = 19\nvalue = [11, 8]", fillcolor="#f8ddc9"] ;
326 -> 327 ;
328 [label="age <= 28.5\nentropy = 0.971\nsamples = 10\nvalue = [4, 6]", fillcolor="#bddef6"] ;
327 -> 328 ;
329 [label="age <= 26.0\nentropy = 0.811\nsamples = 4\nvalue = [3, 1]", fillcolor="#eeab7b"] ;
328 -> 329 ;
330 [label="entropy = 1.0\nsamples = 2\nvalue = [1, 1]", fillcolor="#ffffff"] ;
329 -> 330 ;
331 [label="entropy = 0.0\nsamples = 2\nvalue = [2, 0]", fillcolor="#e58139"] ;
329 -> 331 ;
332 [label="fare <= 26.125\nentropy = 0.65\nsamples = 6\nvalue = [1, 5]", fillcolor="#61b1ea"] ;
328 -> 332 ;
333 [label="entropy = 0.0\nsamples = 4\nvalue = [0, 4]", fillcolor="#399de5"] ;
332 -> 333 ;
334 [label="entropy = 1.0\nsamples = 2\nvalue = [1, 1]", fillcolor="#ffffff"] ;
332 -> 334 ;
335 [label="age <= 40.5\nentropy = 0.764\nsamples = 9\nvalue = [7, 2]", fillcolor="#eca572"] ;
327 -> 335 ;
336 [label="entropy = 0.0\nsamples = 4\nvalue = [4, 0]", fillcolor="#e58139"] ;
335 -> 336 ;
337 [label="age <= 42.5\nentropy = 0.971\nsamples = 5\nvalue = [3, 2]", fillcolor="#f6d5bd"] ;
335 -> 337 ;
338 [label="entropy = 0.0\nsamples = 1\nvalue = [0, 1]", fillcolor="#399de5"] ;
337 -> 338 ;
339 [label="age <= 44.5\nentropy = 0.811\nsamples = 4\nvalue = [3, 1]", fillcolor="#eeab7b"] ;
337 -> 339 ;
340 [label="entropy = 0.0\nsamples = 2\nvalue = [2, 0]", fillcolor="#e58139"] ;
339 -> 340 ;
341 [label="fare <= 26.125\nentropy = 1.0\nsamples = 2\nvalue = [1, 1]", fillcolor="#ffffff"] ;
339 -> 341 ;
342 [label="entropy = 0.0\nsamples = 1\nvalue = [1, 0]", fillcolor="#e58139"] ;
341 -> 342 ;
343 [label="entropy = 0.0\nsamples = 1\nvalue = [0, 1]", fillcolor="#399de5"] ;
341 -> 343 ;
344 [label="entropy = 0.0\nsamples = 2\nvalue = [0, 2]", fillcolor="#399de5"] ;
326 -> 344 ;
345 [label="entropy = 0.0\nsamples = 2\nvalue = [2, 0]", fillcolor="#e58139"] ;
325 -> 345 ;
346 [label="fare <= 26.419\nentropy = 0.881\nsamples = 10\nvalue = [3, 7]", fillcolor="#8ec7f0"] ;
324 -> 346 ;
347 [label="entropy = 0.0\nsamples = 2\nvalue = [0, 2]", fillcolor="#399de5"] ;
346 -> 347 ;
348 [label="age <= 57.0\nentropy = 0.954\nsamples = 8\nvalue = [3, 5]", fillcolor="#b0d8f5"] ;
346 -> 348 ;
349 [label="age <= 53.5\nentropy = 0.985\nsamples = 7\nvalue = [3, 4]", fillcolor="#cee6f8"] ;
348 -> 349 ;
350 [label="age <= 46.5\nentropy = 0.918\nsamples = 6\nvalue = [2, 4]", fillcolor="#9ccef2"] ;
349 -> 350 ;
351 [label="age <= 36.5\nentropy = 1.0\nsamples = 4\nvalue = [2, 2]", fillcolor="#ffffff"] ;
350 -> 351 ;
352 [label="entropy = 1.0\nsamples = 2\nvalue = [1, 1]", fillcolor="#ffffff"] ;
351 -> 352 ;
353 [label="entropy = 1.0\nsamples = 2\nvalue = [1, 1]", fillcolor="#ffffff"] ;
351 -> 353 ;
354 [label="entropy = 0.0\nsamples = 2\nvalue = [0, 2]", fillcolor="#399de5"] ;
350 -> 354 ;
355 [label="entropy = 0.0\nsamples = 1\nvalue = [1, 0]", fillcolor="#e58139"] ;
349 -> 355 ;
356 [label="entropy = 0.0\nsamples = 1\nvalue = [0, 1]", fillcolor="#399de5"] ;
348 -> 356 ;
357 [label="age <= 31.5\nentropy = 0.811\nsamples = 8\nvalue = [6, 2]", fillcolor="#eeab7b"] ;
323 -> 357 ;
358 [label="entropy = 0.0\nsamples = 4\nvalue = [4, 0]", fillcolor="#e58139"] ;
357 -> 358 ;
359 [label="fare <= 27.36\nentropy = 1.0\nsamples = 4\nvalue = [2, 2]", fillcolor="#ffffff"] ;
357 -> 359 ;
360 [label="entropy = 0.0\nsamples = 1\nvalue = [1, 0]", fillcolor="#e58139"] ;
359 -> 360 ;
361 [label="age <= 34.5\nentropy = 0.918\nsamples = 3\nvalue = [1, 2]", fillcolor="#9ccef2"] ;
359 -> 361 ;
362 [label="entropy = 0.0\nsamples = 1\nvalue = [0, 1]", fillcolor="#399de5"] ;
361 -> 362 ;
363 [label="fare <= 27.735\nentropy = 1.0\nsamples = 2\nvalue = [1, 1]", fillcolor="#ffffff"] ;
361 -> 363 ;
364 [label="entropy = 0.0\nsamples = 1\nvalue = [0, 1]", fillcolor="#399de5"] ;
363 -> 364 ;
365 [label="entropy = 0.0\nsamples = 1\nvalue = [1, 0]", fillcolor="#e58139"] ;
363 -> 365 ;
366 [label="fare <= 12.0\nentropy = 0.592\nsamples = 7\nvalue = [6, 1]", fillcolor="#e9965a"] ;
182 -> 366 ;
367 [label="age <= 66.0\nentropy = 1.0\nsamples = 2\nvalue = [1, 1]", fillcolor="#ffffff"] ;
366 -> 367 ;
368 [label="entropy = 0.0\nsamples = 1\nvalue = [0, 1]", fillcolor="#399de5"] ;
367 -> 368 ;
369 [label="entropy = 0.0\nsamples = 1\nvalue = [1, 0]", fillcolor="#e58139"] ;
367 -> 369 ;
370 [label="entropy = 0.0\nsamples = 5\nvalue = [5, 0]", fillcolor="#e58139"] ;
366 -> 370 ;
371 [label="fare <= 29.413\nentropy = 0.503\nsamples = 9\nvalue = [8, 1]", fillcolor="#e89152"] ;
179 -> 371 ;
372 [label="entropy = 0.0\nsamples = 6\nvalue = [6, 0]", fillcolor="#e58139"] ;
371 -> 372 ;
373 [label="age <= 32.5\nentropy = 0.918\nsamples = 3\nvalue = [2, 1]", fillcolor="#f2c09c"] ;
371 -> 373 ;
374 [label="entropy = 0.0\nsamples = 1\nvalue = [0, 1]", fillcolor="#399de5"] ;
373 -> 374 ;
375 [label="entropy = 0.0\nsamples = 2\nvalue = [2, 0]", fillcolor="#e58139"] ;
373 -> 375 ;
376 [label="age <= 28.5\nentropy = 0.811\nsamples = 12\nvalue = [3, 9]", fillcolor="#7bbeee"] ;
178 -> 376 ;
377 [label="entropy = 0.0\nsamples = 6\nvalue = [0, 6]", fillcolor="#399de5"] ;
376 -> 377 ;
378 [label="age <= 30.5\nentropy = 1.0\nsamples = 6\nvalue = [3, 3]", fillcolor="#ffffff"] ;
376 -> 378 ;
379 [label="entropy = 0.0\nsamples = 1\nvalue = [1, 0]", fillcolor="#e58139"] ;
378 -> 379 ;
380 [label="age <= 32.25\nentropy = 0.971\nsamples = 5\nvalue = [2, 3]", fillcolor="#bddef6"] ;
378 -> 380 ;
381 [label="entropy = 0.0\nsamples = 1\nvalue = [0, 1]", fillcolor="#399de5"] ;
380 -> 381 ;
382 [label="fare <= 30.035\nentropy = 1.0\nsamples = 4\nvalue = [2, 2]", fillcolor="#ffffff"] ;
380 -> 382 ;
383 [label="entropy = 0.0\nsamples = 1\nvalue = [0, 1]", fillcolor="#399de5"] ;
382 -> 383 ;
384 [label="fare <= 30.285\nentropy = 0.918\nsamples = 3\nvalue = [2, 1]", fillcolor="#f2c09c"] ;
382 -> 384 ;
385 [label="entropy = 0.0\nsamples = 1\nvalue = [1, 0]", fillcolor="#e58139"] ;
384 -> 385 ;
386 [label="age <= 53.5\nentropy = 1.0\nsamples = 2\nvalue = [1, 1]", fillcolor="#ffffff"] ;
384 -> 386 ;
387 [label="entropy = 0.0\nsamples = 1\nvalue = [0, 1]", fillcolor="#399de5"] ;
386 -> 387 ;
388 [label="entropy = 0.0\nsamples = 1\nvalue = [1, 0]", fillcolor="#e58139"] ;
386 -> 388 ;
389 [label="age <= 47.5\nentropy = 0.731\nsamples = 44\nvalue = [35, 9]", fillcolor="#eca16c"] ;
177 -> 389 ;
390 [label="age <= 35.5\nentropy = 0.629\nsamples = 38\nvalue = [32, 6]", fillcolor="#ea995e"] ;
389 -> 390 ;
391 [label="age <= 33.0\nentropy = 0.722\nsamples = 30\nvalue = [24, 6]", fillcolor="#eca06a"] ;
390 -> 391 ;
392 [label="fare <= 32.194\nentropy = 0.663\nsamples = 29\nvalue = [24, 5]", fillcolor="#ea9b62"] ;
391 -> 392 ;
393 [label="entropy = 0.0\nsamples = 4\nvalue = [4, 0]", fillcolor="#e58139"] ;
392 -> 393 ;
394 [label="fare <= 36.877\nentropy = 0.722\nsamples = 25\nvalue = [20, 5]", fillcolor="#eca06a"] ;
392 -> 394 ;
395 [label="age <= 8.5\nentropy = 0.954\nsamples = 8\nvalue = [5, 3]", fillcolor="#f5cdb0"] ;
394 -> 395 ;
396 [label="entropy = 0.0\nsamples = 1\nvalue = [0, 1]", fillcolor="#399de5"] ;
395 -> 396 ;
397 [label="age <= 24.5\nentropy = 0.863\nsamples = 7\nvalue = [5, 2]", fillcolor="#efb388"] ;
395 -> 397 ;
398 [label="entropy = 0.0\nsamples = 3\nvalue = [3, 0]", fillcolor="#e58139"] ;
397 -> 398 ;
399 [label="fare <= 35.25\nentropy = 1.0\nsamples = 4\nvalue = [2, 2]", fillcolor="#ffffff"] ;
397 -> 399 ;
400 [label="fare <= 34.0\nentropy = 0.918\nsamples = 3\nvalue = [2, 1]", fillcolor="#f2c09c"] ;
399 -> 400 ;
401 [label="entropy = 1.0\nsamples = 2\nvalue = [1, 1]", fillcolor="#ffffff"] ;
400 -> 401 ;
402 [label="entropy = 0.0\nsamples = 1\nvalue = [1, 0]", fillcolor="#e58139"] ;
400 -> 402 ;
403 [label="entropy = 0.0\nsamples = 1\nvalue = [0, 1]", fillcolor="#399de5"] ;
399 -> 403 ;
404 [label="age <= 24.5\nentropy = 0.523\nsamples = 17\nvalue = [15, 2]", fillcolor="#e89253"] ;
394 -> 404 ;
405 [label="age <= 19.0\nentropy = 0.811\nsamples = 8\nvalue = [6, 2]", fillcolor="#eeab7b"] ;
404 -> 405 ;
406 [label="entropy = 0.0\nsamples = 6\nvalue = [6, 0]", fillcolor="#e58139"] ;
405 -> 406 ;
407 [label="entropy = 0.0\nsamples = 2\nvalue = [0, 2]", fillcolor="#399de5"] ;
405 -> 407 ;
408 [label="entropy = 0.0\nsamples = 9\nvalue = [9, 0]", fillcolor="#e58139"] ;
404 -> 408 ;
409 [label="entropy = 0.0\nsamples = 1\nvalue = [0, 1]", fillcolor="#399de5"] ;
391 -> 409 ;
410 [label="entropy = 0.0\nsamples = 8\nvalue = [8, 0]", fillcolor="#e58139"] ;
390 -> 410 ;
411 [label="age <= 53.5\nentropy = 1.0\nsamples = 6\nvalue = [3, 3]", fillcolor="#ffffff"] ;
389 -> 411 ;
412 [label="entropy = 0.0\nsamples = 2\nvalue = [0, 2]", fillcolor="#399de5"] ;
411 -> 412 ;
413 [label="fare <= 37.25\nentropy = 0.811\nsamples = 4\nvalue = [3, 1]", fillcolor="#eeab7b"] ;
411 -> 413 ;
414 [label="age <= 58.5\nentropy = 1.0\nsamples = 2\nvalue = [1, 1]", fillcolor="#ffffff"] ;
413 -> 414 ;
415 [label="entropy = 0.0\nsamples = 1\nvalue = [0, 1]", fillcolor="#399de5"] ;
414 -> 415 ;
416 [label="entropy = 0.0\nsamples = 1\nvalue = [1, 0]", fillcolor="#e58139"] ;
414 -> 416 ;
417 [label="entropy = 0.0\nsamples = 2\nvalue = [2, 0]", fillcolor="#e58139"] ;
413 -> 417 ;
418 [label="age <= 29.5\nentropy = 0.901\nsamples = 120\nvalue = [38, 82]", fillcolor="#95caf1"] ;
162 -> 418 ;
419 [label="age <= 27.5\nentropy = 0.981\nsamples = 55\nvalue = [23, 32]", fillcolor="#c7e3f8"] ;
418 -> 419 ;
420 [label="fare <= 71.4\nentropy = 0.868\nsamples = 38\nvalue = [11, 27]", fillcolor="#8ac5f0"] ;
419 -> 420 ;
421 [label="fare <= 54.05\nentropy = 0.439\nsamples = 11\nvalue = [1, 10]", fillcolor="#4da7e8"] ;
420 -> 421 ;
422 [label="age <= 23.0\nentropy = 1.0\nsamples = 2\nvalue = [1, 1]", fillcolor="#ffffff"] ;
421 -> 422 ;
423 [label="entropy = 0.0\nsamples = 1\nvalue = [1, 0]", fillcolor="#e58139"] ;
422 -> 423 ;
424 [label="entropy = 0.0\nsamples = 1\nvalue = [0, 1]", fillcolor="#399de5"] ;
422 -> 424 ;
425 [label="entropy = 0.0\nsamples = 9\nvalue = [0, 9]", fillcolor="#399de5"] ;
421 -> 425 ;
426 [label="fare <= 75.115\nentropy = 0.951\nsamples = 27\nvalue = [10, 17]", fillcolor="#add7f4"] ;
420 -> 426 ;
427 [label="entropy = 0.0\nsamples = 2\nvalue = [2, 0]", fillcolor="#e58139"] ;
426 -> 427 ;
428 [label="fare <= 127.817\nentropy = 0.904\nsamples = 25\nvalue = [8, 17]", fillcolor="#96cbf1"] ;
426 -> 428 ;
429 [label="age <= 17.5\nentropy = 0.65\nsamples = 12\nvalue = [2, 10]", fillcolor="#61b1ea"] ;
428 -> 429 ;
430 [label="entropy = 0.0\nsamples = 5\nvalue = [0, 5]", fillcolor="#399de5"] ;
429 -> 430 ;
431 [label="age <= 22.0\nentropy = 0.863\nsamples = 7\nvalue = [2, 5]", fillcolor="#88c4ef"] ;
429 -> 431 ;
432 [label="age <= 19.5\nentropy = 0.918\nsamples = 3\nvalue = [2, 1]", fillcolor="#f2c09c"] ;
431 -> 432 ;
433 [label="entropy = 0.0\nsamples = 1\nvalue = [1, 0]", fillcolor="#e58139"] ;
432 -> 433 ;
434 [label="fare <= 77.623\nentropy = 1.0\nsamples = 2\nvalue = [1, 1]", fillcolor="#ffffff"] ;
432 -> 434 ;
435 [label="entropy = 0.0\nsamples = 1\nvalue = [1, 0]", fillcolor="#e58139"] ;
434 -> 435 ;
436 [label="entropy = 0.0\nsamples = 1\nvalue = [0, 1]", fillcolor="#399de5"] ;
434 -> 436 ;
437 [label="entropy = 0.0\nsamples = 4\nvalue = [0, 4]", fillcolor="#399de5"] ;
431 -> 437 ;
438 [label="age <= 24.5\nentropy = 0.996\nsamples = 13\nvalue = [6, 7]", fillcolor="#e3f1fb"] ;
428 -> 438 ;
439 [label="fare <= 143.592\nentropy = 0.946\nsamples = 11\nvalue = [4, 7]", fillcolor="#aad5f4"] ;
438 -> 439 ;
440 [label="entropy = 0.0\nsamples = 1\nvalue = [1, 0]", fillcolor="#e58139"] ;
439 -> 440 ;
441 [label="age <= 1.46\nentropy = 0.881\nsamples = 10\nvalue = [3, 7]", fillcolor="#8ec7f0"] ;
439 -> 441 ;
442 [label="entropy = 0.0\nsamples = 1\nvalue = [0, 1]", fillcolor="#399de5"] ;
441 -> 442 ;
443 [label="age <= 8.5\nentropy = 0.918\nsamples = 9\nvalue = [3, 6]", fillcolor="#9ccef2"] ;
441 -> 443 ;
444 [label="entropy = 0.0\nsamples = 1\nvalue = [1, 0]", fillcolor="#e58139"] ;
443 -> 444 ;
445 [label="fare <= 237.523\nentropy = 0.811\nsamples = 8\nvalue = [2, 6]", fillcolor="#7bbeee"] ;
443 -> 445 ;
446 [label="entropy = 0.0\nsamples = 3\nvalue = [0, 3]", fillcolor="#399de5"] ;
445 -> 446 ;
447 [label="fare <= 254.948\nentropy = 0.971\nsamples = 5\nvalue = [2, 3]", fillcolor="#bddef6"] ;
445 -> 447 ;
448 [label="entropy = 0.0\nsamples = 1\nvalue = [1, 0]", fillcolor="#e58139"] ;
447 -> 448 ;
449 [label="age <= 20.0\nentropy = 0.811\nsamples = 4\nvalue = [1, 3]", fillcolor="#7bbeee"] ;
447 -> 449 ;
450 [label="entropy = 0.0\nsamples = 1\nvalue = [1, 0]", fillcolor="#e58139"] ;
449 -> 450 ;
451 [label="entropy = 0.0\nsamples = 3\nvalue = [0, 3]", fillcolor="#399de5"] ;
449 -> 451 ;
452 [label="entropy = 0.0\nsamples = 2\nvalue = [2, 0]", fillcolor="#e58139"] ;
438 -> 452 ;
453 [label="fare <= 74.375\nentropy = 0.874\nsamples = 17\nvalue = [12, 5]", fillcolor="#f0b58b"] ;
419 -> 453 ;
454 [label="fare <= 61.548\nentropy = 0.65\nsamples = 12\nvalue = [10, 2]", fillcolor="#ea9a61"] ;
453 -> 454 ;
455 [label="fare <= 55.748\nentropy = 1.0\nsamples = 4\nvalue = [2, 2]", fillcolor="#ffffff"] ;
454 -> 455 ;
456 [label="entropy = 0.0\nsamples = 1\nvalue = [0, 1]", fillcolor="#399de5"] ;
455 -> 456 ;
457 [label="entropy = 0.918\nsamples = 3\nvalue = [2, 1]", fillcolor="#f2c09c"] ;
455 -> 457 ;
458 [label="entropy = 0.0\nsamples = 8\nvalue = [8, 0]", fillcolor="#e58139"] ;
454 -> 458 ;
459 [label="fare <= 219.431\nentropy = 0.971\nsamples = 5\nvalue = [2, 3]", fillcolor="#bddef6"] ;
453 -> 459 ;
460 [label="fare <= 107.91\nentropy = 0.811\nsamples = 4\nvalue = [1, 3]", fillcolor="#7bbeee"] ;
459 -> 460 ;
461 [label="fare <= 80.685\nentropy = 1.0\nsamples = 2\nvalue = [1, 1]", fillcolor="#ffffff"] ;
460 -> 461 ;
462 [label="entropy = 0.0\nsamples = 1\nvalue = [0, 1]", fillcolor="#399de5"] ;
461 -> 462 ;
463 [label="entropy = 0.0\nsamples = 1\nvalue = [1, 0]", fillcolor="#e58139"] ;
461 -> 463 ;
464 [label="entropy = 0.0\nsamples = 2\nvalue = [0, 2]", fillcolor="#399de5"] ;
460 -> 464 ;
465 [label="entropy = 0.0\nsamples = 1\nvalue = [1, 0]", fillcolor="#e58139"] ;
459 -> 465 ;
466 [label="age <= 43.5\nentropy = 0.779\nsamples = 65\nvalue = [15, 50]", fillcolor="#74baed"] ;
418 -> 466 ;
467 [label="fare <= 79.25\nentropy = 0.414\nsamples = 36\nvalue = [3, 33]", fillcolor="#4ba6e7"] ;
466 -> 467 ;
468 [label="fare <= 72.392\nentropy = 0.684\nsamples = 11\nvalue = [2, 9]", fillcolor="#65b3eb"] ;
467 -> 468 ;
469 [label="entropy = 0.0\nsamples = 9\nvalue = [0, 9]", fillcolor="#399de5"] ;
468 -> 469 ;
470 [label="entropy = 0.0\nsamples = 2\nvalue = [2, 0]", fillcolor="#e58139"] ;
468 -> 470 ;
471 [label="fare <= 144.548\nentropy = 0.242\nsamples = 25\nvalue = [1, 24]", fillcolor="#41a1e6"] ;
467 -> 471 ;
472 [label="entropy = 0.0\nsamples = 16\nvalue = [0, 16]", fillcolor="#399de5"] ;
471 -> 472 ;
473 [label="fare <= 159.165\nentropy = 0.503\nsamples = 9\nvalue = [1, 8]", fillcolor="#52a9e8"] ;
471 -> 473 ;
474 [label="age <= 39.0\nentropy = 1.0\nsamples = 2\nvalue = [1, 1]", fillcolor="#ffffff"] ;
473 -> 474 ;
475 [label="entropy = 0.0\nsamples = 1\nvalue = [1, 0]", fillcolor="#e58139"] ;
474 -> 475 ;
476 [label="entropy = 0.0\nsamples = 1\nvalue = [0, 1]", fillcolor="#399de5"] ;
474 -> 476 ;
477 [label="entropy = 0.0\nsamples = 7\nvalue = [0, 7]", fillcolor="#399de5"] ;
473 -> 477 ;
478 [label="age <= 63.0\nentropy = 0.978\nsamples = 29\nvalue = [12, 17]", fillcolor="#c5e2f7"] ;
466 -> 478 ;
479 [label="age <= 55.0\nentropy = 0.951\nsamples = 27\nvalue = [10, 17]", fillcolor="#add7f4"] ;
478 -> 479 ;
480 [label="fare <= 122.267\nentropy = 0.998\nsamples = 21\nvalue = [10, 11]", fillcolor="#edf6fd"] ;
479 -> 480 ;
481 [label="fare <= 78.733\nentropy = 0.998\nsamples = 19\nvalue = [10, 9]", fillcolor="#fcf2eb"] ;
480 -> 481 ;
482 [label="fare <= 77.623\nentropy = 0.918\nsamples = 12\nvalue = [4, 8]", fillcolor="#9ccef2"] ;
481 -> 482 ;
483 [label="age <= 49.5\nentropy = 0.971\nsamples = 10\nvalue = [4, 6]", fillcolor="#bddef6"] ;
482 -> 483 ;
484 [label="age <= 46.5\nentropy = 0.65\nsamples = 6\nvalue = [1, 5]", fillcolor="#61b1ea"] ;
483 -> 484 ;
485 [label="fare <= 59.577\nentropy = 1.0\nsamples = 2\nvalue = [1, 1]", fillcolor="#ffffff"] ;
484 -> 485 ;
486 [label="entropy = 0.0\nsamples = 1\nvalue = [0, 1]", fillcolor="#399de5"] ;
485 -> 486 ;
487 [label="entropy = 0.0\nsamples = 1\nvalue = [1, 0]", fillcolor="#e58139"] ;
485 -> 487 ;
488 [label="entropy = 0.0\nsamples = 4\nvalue = [0, 4]", fillcolor="#399de5"] ;
484 -> 488 ;
489 [label="age <= 52.5\nentropy = 0.811\nsamples = 4\nvalue = [3, 1]", fillcolor="#eeab7b"] ;
483 -> 489 ;
490 [label="entropy = 0.0\nsamples = 2\nvalue = [2, 0]", fillcolor="#e58139"] ;
489 -> 490 ;
491 [label="fare <= 68.344\nentropy = 1.0\nsamples = 2\nvalue = [1, 1]", fillcolor="#ffffff"] ;
489 -> 491 ;
492 [label="entropy = 0.0\nsamples = 1\nvalue = [0, 1]", fillcolor="#399de5"] ;
491 -> 492 ;
493 [label="entropy = 0.0\nsamples = 1\nvalue = [1, 0]", fillcolor="#e58139"] ;
491 -> 493 ;
494 [label="entropy = 0.0\nsamples = 2\nvalue = [0, 2]", fillcolor="#399de5"] ;
482 -> 494 ;
495 [label="fare <= 86.29\nentropy = 0.592\nsamples = 7\nvalue = [6, 1]", fillcolor="#e9965a"] ;
481 -> 495 ;
496 [label="entropy = 0.0\nsamples = 3\nvalue = [3, 0]", fillcolor="#e58139"] ;
495 -> 496 ;
497 [label="fare <= 89.552\nentropy = 0.811\nsamples = 4\nvalue = [3, 1]", fillcolor="#eeab7b"] ;
495 -> 497 ;
498 [label="entropy = 0.0\nsamples = 1\nvalue = [0, 1]", fillcolor="#399de5"] ;
497 -> 498 ;
499 [label="entropy = 0.0\nsamples = 3\nvalue = [3, 0]", fillcolor="#e58139"] ;
497 -> 499 ;
500 [label="entropy = 0.0\nsamples = 2\nvalue = [0, 2]", fillcolor="#399de5"] ;
480 -> 500 ;
501 [label="entropy = 0.0\nsamples = 6\nvalue = [0, 6]", fillcolor="#399de5"] ;
479 -> 501 ;
502 [label="entropy = 0.0\nsamples = 2\nvalue = [2, 0]", fillcolor="#e58139"] ;
478 -> 502 ;
}